{"learner":{"attributes":{"scikit_learn":"{\"_estimator_type\": \"classifier\"}"},"feature_names":["cryptominer_binary","mining_pools","hardcoded_secrets","external_calls","ssh_backdoor","runs_as_root","known_cves","outdated_base","typosquatting_score","image_age_days","suspicious_ports","avg_file_entropy","high_entropy_ratio","stratum_indicators","raw_ip_connections","suspicious_dns_queries","stripped_binaries_ratio","packed_binary_score","layer_deletion_score","temp_file_activity","process_injection_risk","privilege_escalation_risk","crypto_mining_behavior","anti_analysis_score"],"feature_types":["float","float","float","float","float","float","float","float","float","float","float","float","float","float","float","float","float","float","float","float","float","float","float","float"],"gradient_booster":{"model":{"cats":{"enc":[],"feature_segments":[],"sorted_idx":[]},"gbtree_model_param":{"num_parallel_tree":"1","num_trees":"150"},"iteration_indptr":[0,1,2,3,4,5,6,7,8,9,10,11,12,13,14,15,16,17,18,19,20,21,22,23,24,25,26,27,28,29,30,31,32,33,34,35,36,37,38,39,40,41,42,43,44,45,46,47,48,49,50,51,52,53,54,55,56,57,58,59,60,61,62,63,64,65,66,67,68,69,70,71,72,73,74,75,76,77,78,79,80,81,82,83,84,85,86,87,88,89,90,91,92,93,94,95,96,97,98,99,100,101,102,103,104,105,106,107,108,109,110,111,112,113,114,115,116,117,118,119,120,121,122,123,124,125,126,127,128,129,130,131,132,133,134,135,136,137,138,139,140,141,142,143,144,145,146,147,148,149,150],"tree_info":[0,0,0,0,0,0,0,0,0,0,0,0,0,0,0,0,0,0,0,0,0,0,0,0,0,0,0,0,0,0,0,0,0,0,0,0,0,0,0,0,0,0,0,0,0,0,0,0,0,0,0,0,0,0,0,0,0,0,0,0,0,0,0,0,0,0,0,0,0,0,0,0,0,0,0,0,0,0,0,0,0,0,0,0,0,0,0,0,0,0,0,0,0,0,0,0,0,0,0,0,0,0,0,0,0,0,0,0,0,0,0,0,0,0,0,0,0,0,0,0,0,0,0,0,0,0,0,0,0,0,0,0,0,0,0,0,0,0,0,0,0,0,0,0,0,0,0,0,0,0],"trees":[{"base_weights":[3.190048E-2,-1.7720207E0,1.8889482E-1,-1.884058E-1,-1.666667E-2],"categories":[],"categories_nodes":[],"categories_segments":[],"categories_sizes":[],"default_left":[0,0,0,0,0],"id":0,"left_children":[1,3,-1,-1,-1],"loss_changes":[1.2249659E2,3.0237617E0,0E0,0E0,0E0],"parents":[2147483647,0,0,1,1],"right_children":[2,4,-1,-1,-1],"split_conditions":[1.011E3,5.16E-1,1.8889482E-1,-1.884058E-1,-1.666667E-2],"split_indices":[9,15,0,0,0],"split_type":[0,0,0,0,0],"sum_hessian":[3.4567307E1,1.7557692E1,1.7009615E1,1.625E1,1.3076923E0],"tree_param":{"num_deleted":"0","num_feature":"24","num_nodes":"5","size_leaf_vector":"1"}},{"base_weights":[3.2096464E-2,-1.5574592E0,1.6781075E-1,-1.7252618E-1,1.2710238E-2],"categories":[],"categories_nodes":[],"categories_segments":[],"categories_sizes":[],"default_left":[0,0,0,0,0],"id":1,"left_children":[1,3,-1,-1,-1],"loss_changes":[9.353786E1,5.3632393E0,0E0,0E0,0E0],"parents":[2147483647,0,0,1,1],"right_children":[2,4,-1,-1,-1],"split_conditions":[8.89E2,3.3E1,1.6781075E-1,-1.7252618E-1,1.2710238E-2],"split_indices":[9,6,0,0,0],"split_type":[0,0,0,0,0],"sum_hessian":[3.3751324E1,1.7197483E1,1.655384E1,1.5617619E1,1.5798639E0],"tree_param":{"num_deleted":"0","num_feature":"24","num_nodes":"5","size_leaf_vector":"1"}},{"base_weights":[2.8232481E-2,-1.5909433E-1,1.2376153E0,-6.749155E-2,1.4372537E0,-8.92179E-3,1.5616696E-1],"categories":[],"categories_nodes":[],"categories_segments":[],"categories_sizes":[],"default_left":[0,0,0,0,0,0,0],"id":2,"left_children":[1,-1,3,-1,5,-1,-1],"loss_changes":[6.561233E1,0E0,8.288345E0,0E0,3.4961357E0,0E0,0E0],"parents":[2147483647,0,0,2,2,4,4],"right_children":[2,-1,4,-1,6,-1,-1],"split_conditions":[2.6E-1,-1.5909433E-1,1E-3,-6.749155E-2,1E0,-8.92179E-3,1.5616696E-1],"split_indices":[15,0,20,0,5,0,0],"split_type":[0,0,0,0,0,0,0],"sum_hessian":[3.1500883E1,1.3333671E1,1.8167213E1,1.4921124E0,1.66751E1,1.2780075E0,1.5397094E1],"tree_param":{"num_deleted":"0","num_feature":"24","num_nodes":"7","size_leaf_vector":"1"}},{"base_weights":[-5.8603656E-2,-1.3474637E0,1.5091161E-1,-1.5201561E-1,-3.215376E-1,-1.0242181E-1,4.6722602E-2],"categories":[],"categories_nodes":[],"categories_segments":[],"categories_sizes":[],"default_left":[0,0,0,0,0,0,0],"id":3,"left_children":[1,3,-1,-1,5,-1,-1],"loss_changes":[7.132653E1,2.93927E0,0E0,0E0,2.7265716E0,0E0,0E0],"parents":[2147483647,0,0,1,1,4,4],"right_children":[2,4,-1,-1,6,-1,-1],"split_conditions":[1.011E3,2.9E1,1.5091161E-1,-1.5201561E-1,1E-3,-1.0242181E-1,4.6722602E-2],"split_indices":[9,6,0,0,20,0,0],"split_type":[0,0,0,0,0,0,0],"sum_hessian":[3.3293785E1,1.8349068E1,1.4944716E1,1.5293073E1,3.055995E0,1.4583204E0,1.5976746E0],"tree_param":{"num_deleted":"0","num_feature":"24","num_nodes":"7","size_leaf_vector":"1"}},{"base_weights":[9.235136E-3,-1.2076207E0,1.4303865E-1,-1.3642011E0,-3.055995E-1,-1.4211807E-1,-3.720578E-2,-9.748455E-2,4.3871995E-2],"categories":[],"categories_nodes":[],"categories_segments":[],"categories_sizes":[],"default_left":[0,0,0,0,0,0,0,0,0],"id":4,"left_children":[1,3,-1,5,7,-1,-1,-1,-1],"loss_changes":[5.9422882E1,2.1982021E0,0E0,3.468132E-1,2.43384E0,0E0,0E0,0E0,0E0],"parents":[2147483647,0,0,1,1,3,3,4,4],"right_children":[2,4,-1,6,8,-1,-1,-1,-1],"split_conditions":[1.011E3,2.9E1,1.4303865E-1,6.86E2,1E-3,-1.4211807E-1,-3.720578E-2,-9.748455E-2,4.3871995E-2],"split_indices":[9,6,0,9,20,0,0,0,0],"split_type":[0,0,0,0,0,0,0,0,0],"sum_hessian":[3.236281E1,1.7515484E1,1.4847322E1,1.4488133E1,3.0273514E0,1.3292312E1,1.1958218E0,1.4309849E0,1.5963666E0],"tree_param":{"num_deleted":"0","num_feature":"24","num_nodes":"9","size_leaf_vector":"1"}},{"base_weights":[5.3646013E-2,-9.9991775E-1,1.1068479E0,-1.3467188E-1,-7.561749E-2,-4.9206126E-2,1.3361341E-1,-9.4682045E-2,5.308953E-1,2.6659085E-3,7.302969E-2],"categories":[],"categories_nodes":[],"categories_segments":[],"categories_sizes":[],"default_left":[0,0,0,0,0,0,0,0,0,0,0],"id":5,"left_children":[1,3,5,-1,7,-1,-1,-1,9,-1,-1],"loss_changes":[3.8638462E1,5.486763E0,7.03261E0,0E0,3.5759366E0,0E0,0E0,0E0,3.8972664E-1,0E0,0E0],"parents":[2147483647,0,0,1,1,2,2,4,4,8,8],"right_children":[2,4,6,-1,8,-1,-1,-1,10,-1,-1],"split_conditions":[2.9E1,1E0,1E-3,-1.3467188E-1,1.35E-1,-4.9206126E-2,1.3361341E-1,-9.4682045E-2,7.2E-2,2.6659085E-3,7.302969E-2],"split_indices":[6,7,20,0,23,0,0,0,13,0,0],"split_type":[0,0,0,0,0,0,0,0,0,0,0],"sum_hessian":[3.2824066E1,1.6434505E1,1.638956E1,1.1618271E1,4.816235E0,1.9117904E0,1.4477771E1,1.7464797E0,3.0697556E0,1.1912022E0,1.8785534E0],"tree_param":{"num_deleted":"0","num_feature":"24","num_nodes":"11","size_leaf_vector":"1"}},{"base_weights":[-8.862252E-2,-1.2023696E0,1.3019256E-1,-1.2875096E-1,-4.522748E-3],"categories":[],"categories_nodes":[],"categories_segments":[],"categories_sizes":[],"default_left":[0,0,0,0,0],"id":6,"left_children":[1,3,-1,-1,-1],"loss_changes":[4.7076748E1,1.6005497E0,0E0,0E0,0E0],"parents":[2147483647,0,0,1,1],"right_children":[2,4,-1,-1,-1],"split_conditions":[1.011E3,2.73E-1,1.3019256E-1,-1.2875096E-1,-4.522748E-3],"split_indices":[9,20,0,0,0],"split_type":[0,0,0,0,0],"sum_hessian":[2.8386452E1,1.58371525E1,1.2549299E1,1.464681E1,1.1903431E0],"tree_param":{"num_deleted":"0","num_feature":"24","num_nodes":"5","size_leaf_vector":"1"}},{"base_weights":[8.125683E-2,-1.0235592E0,1.262217E-1,-1.1804183E0,-2.7004093E-1,-1.24596775E-1,-2.8612388E-2,-8.546881E-2,3.6018267E-2],"categories":[],"categories_nodes":[],"categories_segments":[],"categories_sizes":[],"default_left":[0,0,0,0,0,0,0,0,0],"id":7,"left_children":[1,3,-1,5,7,-1,-1,-1,-1],"loss_changes":[3.8268574E1,1.477149E0,0E0,3.633423E-1,1.7502196E0,0E0,0E0,0E0,0E0],"parents":[2147483647,0,0,1,1,3,3,4,4],"right_children":[2,4,-1,6,8,-1,-1,-1,-1],"split_conditions":[1.011E3,2.9E1,1.262217E-1,6.86E2,1E-3,-1.24596775E-1,-2.8612388E-2,-8.546881E-2,3.6018267E-2],"split_indices":[9,6,0,9,20,0,0,0,0],"split_type":[0,0,0,0,0,0,0,0,0],"sum_hessian":[2.7340143E1,1.4194312E1,1.3145831E1,1.1279689E1,2.9146233E0,1.0142992E1,1.1366965E0,1.3272194E0,1.5874039E0],"tree_param":{"num_deleted":"0","num_feature":"24","num_nodes":"9","size_leaf_vector":"1"}},{"base_weights":[-5.1735405E-2,-1.1064106E0,1.2115937E-1,-1.2251212E-1,-3.321533E-1,8.112975E-3,-5.9201777E-2],"categories":[],"categories_nodes":[],"categories_segments":[],"categories_sizes":[],"default_left":[0,0,0,0,0,0,0],"id":8,"left_children":[1,3,-1,-1,5,-1,-1],"loss_changes":[3.6677444E1,9.6964073E-1,0E0,0E0,4.0920737E-1,0E0,0E0],"parents":[2147483647,0,0,1,1,4,4],"right_children":[2,4,-1,-1,6,-1,-1],"split_conditions":[9.37E2,2.9E1,1.2115937E-1,-1.2251212E-1,4.54E2,8.112975E-3,-5.9201777E-2],"split_indices":[9,6,0,0,9,0,0],"split_type":[0,0,0,0,0,0,0],"sum_hessian":[2.5521221E1,1.3976945E1,1.1544275E1,1.1613955E1,2.3629909E0,1.1777391E0,1.1852518E0],"tree_param":{"num_deleted":"0","num_feature":"24","num_nodes":"7","size_leaf_vector":"1"}},{"base_weights":[-3.1533327E-2,-1.0163628E0,1.1753581E-1,-1.1621476E0,2.434111E-2,-3.7636112E-2,-1.21854715E-1],"categories":[],"categories_nodes":[],"categories_segments":[],"categories_sizes":[],"default_left":[0,0,0,0,0,0,0],"id":9,"left_children":[1,3,-1,5,-1,-1,-1],"loss_changes":[3.30809E1,3.094452E0,0E0,1.5714836E-1,0E0,0E0,0E0],"parents":[2147483647,0,0,1,1,3,3],"right_children":[2,4,-1,6,-1,-1,-1],"split_conditions":[1.011E3,5.64E-1,1.1753581E-1,3.4E-1,2.434111E-2,-3.7636112E-2,-1.21854715E-1],"split_indices":[9,15,0,8,0,0,0],"split_type":[0,0,0,0,0,0,0],"sum_hessian":[2.5827179E1,1.4308907E1,1.1518273E1,1.2894241E1,1.4146651E0,1.3773544E0,1.1516887E1],"tree_param":{"num_deleted":"0","num_feature":"24","num_nodes":"7","size_leaf_vector":"1"}},{"base_weights":[-1.3520149E-2,-9.806541E-1,1.0892843E0,-1.1555781E-1,-1.3788496E-1,2.720402E-2,1.1380341E-1,-7.063847E-2,3.5961207E-2],"categories":[],"categories_nodes":[],"categories_segments":[],"categories_sizes":[],"default_left":[0,0,0,0,0,0,0,0,0],"id":10,"left_children":[1,3,5,-1,7,-1,-1,-1,-1],"loss_changes":[2.8696121E1,1.9527626E0,1.9147205E-1,0E0,1.2716522E0,0E0,0E0,0E0,0E0],"parents":[2147483647,0,0,1,1,2,2,4,4],"right_children":[2,4,6,-1,8,-1,-1,-1,-1],"split_conditions":[8.89E2,2.9E1,1.189E3,-1.1555781E-1,1E-3,2.720402E-2,1.1380341E-1,-7.063847E-2,3.5961207E-2],"split_indices":[9,6,9,0,20,0,0,0,0],"split_type":[0,0,0,0,0,0,0,0,0],"sum_hessian":[2.4903767E1,1.3327031E1,1.1576735E1,1.0728972E1,2.5980597E0,1.022124E0,1.055461E1,1.0165503E0,1.5815094E0],"tree_param":{"num_deleted":"0","num_feature":"24","num_nodes":"9","size_leaf_vector":"1"}},{"base_weights":[-8.52154E-2,-1.0840626E-1,1.1060684E-1],"categories":[],"categories_nodes":[],"categories_segments":[],"categories_sizes":[],"default_left":[0,0,0],"id":11,"left_children":[1,-1,-1],"loss_changes":[2.7101492E1,0E0,0E0],"parents":[2147483647,0,0],"right_children":[2,-1,-1],"split_conditions":[1.011E3,-1.0840626E-1,1.1060684E-1],"split_indices":[9,0,0],"split_type":[0,0,0],"sum_hessian":[2.07684E1,1.1345568E1,9.422832E0],"tree_param":{"num_deleted":"0","num_feature":"24","num_nodes":"3","size_leaf_vector":"1"}},{"base_weights":[2.5929723E-2,-8.737087E-1,1.0329522E-1,-1.0848939E-1,9.754308E-3,-3.721385E-2,4.2585038E-2],"categories":[],"categories_nodes":[],"categories_segments":[],"categories_sizes":[],"default_left":[0,0,0,0,0,0,0],"id":12,"left_children":[1,3,-1,-1,5,-1,-1],"loss_changes":[2.0890997E1,2.2858143E0,0E0,0E0,6.8981385E-1,0E0,0E0],"parents":[2147483647,0,0,1,1,4,4],"right_children":[2,4,-1,-1,6,-1,-1],"split_conditions":[8.89E2,2.9E1,1.0329522E-1,-1.0848939E-1,5.02E-1,-3.721385E-2,4.2585038E-2],"split_indices":[9,6,0,0,15,0,0],"split_type":[0,0,0,0,0,0,0],"sum_hessian":[2.1063427E1,1.1194784E1,9.868643E0,8.851015E0,2.343769E0,1.277199E0,1.06657E0],"tree_param":{"num_deleted":"0","num_feature":"24","num_nodes":"7","size_leaf_vector":"1"}},{"base_weights":[5.689165E-2,-8.3775675E-1,1.0476922E-1,-9.9745595E-1,1.5814343E-2,-2.8673654E-2,-1.0736E-1],"categories":[],"categories_nodes":[],"categories_segments":[],"categories_sizes":[],"default_left":[0,0,0,0,0,0,0],"id":13,"left_children":[1,3,-1,5,-1,-1,-1],"loss_changes":[1.8824791E1,1.938292E0,0E0,2.216959E-1,0E0,0E0,0E0],"parents":[2147483647,0,0,1,1,3,3],"right_children":[2,4,-1,6,-1,-1,-1],"split_conditions":[8.89E2,5.64E-1,1.0476922E-1,3.4E-1,1.5814343E-2,-2.8673654E-2,-1.0736E-1],"split_indices":[9,15,0,8,0,0,0],"split_type":[0,0,0,0,0,0,0],"sum_hessian":[1.9246744E1,1.0195306E1,9.051438E0,8.785009E0,1.4102968E0,1.3112904E0,7.4737186E0],"tree_param":{"num_deleted":"0","num_feature":"24","num_nodes":"7","size_leaf_vector":"1"}},{"base_weights":[-2.3159621E-2,-7.895859E-1,1.019028E-1,-8.9864355E-1,1.3030197E-2,-1.5058838E-2,-9.7191405E-1,-3.2260705E-2,-1.05096005E-1],"categories":[],"categories_nodes":[],"categories_segments":[],"categories_sizes":[],"default_left":[0,0,0,0,0,0,0,0,0],"id":14,"left_children":[1,3,-1,5,-1,-1,7,-1,-1],"loss_changes":[1.553089E1,1.2393994E0,0E0,4.087658E-1,0E0,0E0,1.2499428E-1,0E0,0E0],"parents":[2147483647,0,0,1,1,3,3,6,6],"right_children":[2,4,-1,6,-1,-1,8,-1,-1],"split_conditions":[1.011E3,5.16E-1,1.019028E-1,2E-3,1.3030197E-2,-1.5058838E-2,3.4E-1,-3.2260705E-2,-1.05096005E-1],"split_indices":[9,15,0,22,0,0,8,0,0],"split_type":[0,0,0,0,0,0,0,0,0],"sum_hessian":[1.7436428E1,1.0187156E1,7.2492723E0,9.128069E0,1.0590868E0,1.0868738E0,8.041195E0,1.4241414E0,6.6170535E0],"tree_param":{"num_deleted":"0","num_feature":"24","num_nodes":"9","size_leaf_vector":"1"}},{"base_weights":[2.2493131E-2,-8.494019E-1,1.0014261E-1,-1.0202284E-1,-9.026433E-3],"categories":[],"categories_nodes":[],"categories_segments":[],"categories_sizes":[],"default_left":[0,0,0,0,0],"id":15,"left_children":[1,3,-1,-1,-1],"loss_changes":[1.634711E1,1.2233906E0,0E0,0E0,0E0],"parents":[2147483647,0,0,1,1],"right_children":[2,4,-1,-1,-1],"split_conditions":[8.89E2,2.9E1,1.0014261E-1,-1.0202284E-1,-9.026433E-3],"split_indices":[9,6,0,0,0],"split_type":[0,0,0,0,0],"sum_hessian":[1.715584E1,9.143989E0,8.011852E0,7.183562E0,1.9604266E0],"tree_param":{"num_deleted":"0","num_feature":"24","num_nodes":"5","size_leaf_vector":"1"}},{"base_weights":[1.3062128E-1,-8.44196E-1,7.376244E-1,-9.063156E-3,-9.636128E-2,-1.8784588E-2,8.872465E-1,9.82235E-1,2.5823016E-2,1.0627804E-1,2.2365484E-2],"categories":[],"categories_nodes":[],"categories_segments":[],"categories_sizes":[],"default_left":[0,0,0,0,0,0,0,0,0,0,0],"id":16,"left_children":[1,3,5,-1,-1,-1,7,9,-1,-1,-1],"loss_changes":[1.0412044E1,5.259223E-1,1.6523347E0,0E0,0E0,0E0,3.0863714E-1,2.4006557E-1,0E0,0E0,0E0],"parents":[2147483647,0,0,1,1,2,2,6,6,7,7],"right_children":[2,4,6,-1,-1,-1,8,10,-1,-1,-1],"split_conditions":[2.6E-1,3.4E-2,2.4E1,-9.063156E-3,-9.636128E-2,-1.8784588E-2,3.5E-2,1E-3,2.5823016E-2,1.0627804E-1,2.2365484E-2],"split_indices":[15,13,6,0,0,0,19,11,0,0,0],"split_type":[0,0,0,0,0,0,0,0,0,0,0],"sum_hessian":[1.5543958E1,5.8148437E0,9.729114E0,1.0360341E0,4.7788095E0,1.3184601E0,8.410654E0,6.8193192E0,1.5913346E0,5.802231E0,1.0170885E0],"tree_param":{"num_deleted":"0","num_feature":"24","num_nodes":"11","size_leaf_vector":"1"}},{"base_weights":[-2.4534833E-2,-7.978711E-1,9.663314E-2,-9.988742E-2,-5.056479E-4],"categories":[],"categories_nodes":[],"categories_segments":[],"categories_sizes":[],"default_left":[0,0,0,0,0],"id":17,"left_children":[1,3,-1,-1,-1],"loss_changes":[1.2796191E1,1.4868255E0,0E0,0E0,0E0],"parents":[2147483647,0,0,1,1],"right_children":[2,4,-1,-1,-1],"split_conditions":[1.011E3,2.9E1,9.663314E-2,-9.988742E-2,-5.056479E-4],"split_indices":[9,6,0,0,0],"split_type":[0,0,0,0,0],"sum_hessian":[1.4693081E1,8.36178E0,6.331301E0,6.463239E0,1.8985406E0],"tree_param":{"num_deleted":"0","num_feature":"24","num_nodes":"5","size_leaf_vector":"1"}},{"base_weights":[-1.3649086E-2,-7.0044154E-1,9.29756E-2,-9.692179E-2,9.5674425E-2,-3.5007462E-2,5.3401288E-2],"categories":[],"categories_nodes":[],"categories_segments":[],"categories_sizes":[],"default_left":[0,0,0,0,0,0,0],"id":18,"left_children":[1,3,-1,-1,5,-1,-1],"loss_changes":[1.0569675E1,2.1103582E0,0E0,0E0,8.297856E-1,0E0,0E0],"parents":[2147483647,0,0,1,1,4,4],"right_children":[2,4,-1,-1,6,-1,-1],"split_conditions":[8.45E2,2.9E1,9.29756E-2,-9.692179E-2,9.4E-2,-3.5007462E-2,5.3401288E-2],"split_indices":[9,6,0,0,20,0,0],"split_type":[0,0,0,0,0,0,0],"sum_hessian":[1.4308034E1,8.429184E0,5.87885E0,6.139125E0,2.2900596E0,1.2352679E0,1.0547917E0],"tree_param":{"num_deleted":"0","num_feature":"24","num_nodes":"7","size_leaf_vector":"1"}},{"base_weights":[-1.15261994E-1,-7.676383E-1,5.593931E-1,-9.3423955E-2,-2.945483E-1,-1.760389E-2,7.232086E-2,1.1199835E-2,-6.213082E-2],"categories":[],"categories_nodes":[],"categories_segments":[],"categories_sizes":[],"default_left":[0,0,0,0,0,0,0,0,0],"id":19,"left_children":[1,3,5,-1,7,-1,-1,-1,-1],"loss_changes":[6.6254907E0,3.221507E-1,1.0307832E0,0E0,5.258003E-1,0E0,0E0,0E0,0E0],"parents":[2147483647,0,0,1,1,2,2,4,4],"right_children":[2,4,6,-1,8,-1,-1,-1,-1],"split_conditions":[4E-1,2E-1,2.4E1,-9.3423955E-2,6E-3,-1.760389E-2,7.232086E-2,1.1199835E-2,-6.213082E-2],"split_indices":[15,15,6,0,19,0,0,0,0],"split_type":[0,0,0,0,0,0,0,0,0],"sum_hessian":[1.307787E1,6.578645E0,6.499225E0,4.144408E0,2.4342365E0,1.170368E0,5.328857E0,1.3775582E0,1.0566783E0],"tree_param":{"num_deleted":"0","num_feature":"24","num_nodes":"9","size_leaf_vector":"1"}},{"base_weights":[-1.8422594E-2,-7.093265E-1,9.2227906E-2,-8.7057394E-1,5.1644198E-3,-1.0818108E-2,-9.801886E-2],"categories":[],"categories_nodes":[],"categories_segments":[],"categories_sizes":[],"default_left":[0,0,0,0,0,0,0],"id":20,"left_children":[1,3,-1,5,-1,-1,-1],"loss_changes":[9.696528E0,1.098577E0,0E0,4.9075317E-1,0E0,0E0,0E0],"parents":[2147483647,0,0,1,1,3,3],"right_children":[2,4,-1,6,-1,-1,-1],"split_conditions":[1.011E3,5.16E-1,9.2227906E-2,2E-3,5.1644198E-3,-1.0818108E-2,-9.801886E-2],"split_indices":[9,15,0,22,0,0,0],"split_type":[0,0,0,0,0,0,0],"sum_hessian":[1.2912682E1,7.586611E0,5.3260713E0,6.1412644E0,1.445346E0,1.0217443E0,5.11952E0],"tree_param":{"num_deleted":"0","num_feature":"24","num_nodes":"7","size_leaf_vector":"1"}},{"base_weights":[2.4014276E-2,-7.0359915E-1,8.8747345E-2,-8.9681126E-2,-7.8025195E-3],"categories":[],"categories_nodes":[],"categories_segments":[],"categories_sizes":[],"default_left":[0,0,0,0,0],"id":21,"left_children":[1,3,-1,-1,-1],"loss_changes":[8.335799E0,8.02552E-1,0E0,0E0,0E0],"parents":[2147483647,0,0,1,1],"right_children":[2,4,-1,-1,-1],"split_conditions":[8.89E2,2.9E1,8.8747345E-2,-8.9681126E-2,-7.8025195E-3],"split_indices":[9,6,0,0,0],"split_type":[0,0,0,0,0],"sum_hessian":[1.1274087E1,6.218807E0,5.0552793E0,4.420064E0,1.7987434E0],"tree_param":{"num_deleted":"0","num_feature":"24","num_nodes":"5","size_leaf_vector":"1"}},{"base_weights":[-3.1299632E-2,-6.4035046E-1,8.84127E-2,-8.6011964E-1,3.6021776E-2,-1.192954E-2,-9.656837E-2],"categories":[],"categories_nodes":[],"categories_segments":[],"categories_sizes":[],"default_left":[0,0,0,0,0,0,0],"id":22,"left_children":[1,3,-1,5,-1,-1,-1],"loss_changes":[7.675263E0,2.1210194E0,0E0,4.3602037E-1,0E0,0E0,0E0],"parents":[2147483647,0,0,1,1,3,3],"right_children":[2,4,-1,6,-1,-1,-1],"split_conditions":[1.011E3,5.64E-1,8.84127E-2,3E-3,3.6021776E-2,-1.192954E-2,-9.656837E-2],"split_indices":[9,15,0,13,0,0,0],"split_type":[0,0,0,0,0,0,0],"sum_hessian":[1.1750824E1,7.236639E0,4.5141845E0,6.0484905E0,1.1881484E0,1.0200547E0,5.028436E0],"tree_param":{"num_deleted":"0","num_feature":"24","num_nodes":"7","size_leaf_vector":"1"}},{"base_weights":[1.8270493E-2,-6.850035E-1,8.628486E-2,-8.8202395E-2,-7.4423603E-3],"categories":[],"categories_nodes":[],"categories_segments":[],"categories_sizes":[],"default_left":[0,0,0,0,0],"id":23,"left_children":[1,3,-1,-1,-1],"loss_changes":[7.6807337E0,7.8489304E-1,0E0,0E0,0E0],"parents":[2147483647,0,0,1,1],"right_children":[2,4,-1,-1,-1],"split_conditions":[8.89E2,2.9E1,8.628486E-2,-8.8202395E-2,-7.4423603E-3],"split_indices":[9,6,0,0,0],"split_type":[0,0,0,0,0],"sum_hessian":[1.0936093E1,6.0703216E0,4.8657722E0,4.253307E0,1.8170143E0],"tree_param":{"num_deleted":"0","num_feature":"24","num_nodes":"5","size_leaf_vector":"1"}},{"base_weights":[-4.207849E-2,-6.939318E-1,5.1516736E-1,-1.4957962E-2,-8.051443E-2,-1.5642844E-2,6.72144E-2],"categories":[],"categories_nodes":[],"categories_segments":[],"categories_sizes":[],"default_left":[0,0,0,0,0,0,0],"id":24,"left_children":[1,3,5,-1,-1,-1,-1],"loss_changes":[4.4316816E0,2.1830225E-1,8.031416E-1,0E0,0E0,0E0,0E0],"parents":[2147483647,0,0,1,1,2,2],"right_children":[2,4,6,-1,-1,-1,-1],"split_conditions":[4E-1,2.2E-2,3.2E1,-1.4957962E-2,-8.051443E-2,-1.5642844E-2,6.72144E-2],"split_indices":[15,22,6,0,0,0,0],"split_type":[0,0,0,0,0,0,0],"sum_hessian":[1.0216169E1,4.5953484E0,5.620821E0,1.1773852E0,3.417963E0,1.0655504E0,4.5552707E0],"tree_param":{"num_deleted":"0","num_feature":"24","num_nodes":"7","size_leaf_vector":"1"}},{"base_weights":[1.1080742E-1,-6.625399E-1,6.8945324E-1,-8.4636286E-2,-6.343705E-3,9.336056E-2,-1.1895042E-2],"categories":[],"categories_nodes":[],"categories_segments":[],"categories_sizes":[],"default_left":[0,0,0,0,0,0,0],"id":25,"left_children":[1,3,5,-1,-1,-1,-1],"loss_changes":[5.319232E0,5.146308E-1,1.4345257E0,0E0,0E0,0E0,0E0],"parents":[2147483647,0,0,1,1,2,2],"right_children":[2,4,6,-1,-1,-1,-1],"split_conditions":[3E-1,2E-1,2.1E-2,-8.4636286E-2,-6.343705E-3,9.336056E-2,-1.1895042E-2],"split_indices":[15,15,19,0,0,0,0],"split_type":[0,0,0,0,0,0,0],"sum_hessian":[9.865933E0,4.1605144E0,5.7054186E0,2.867853E0,1.2926615E0,4.263032E0,1.4423867E0],"tree_param":{"num_deleted":"0","num_feature":"24","num_nodes":"7","size_leaf_vector":"1"}},{"base_weights":[-9.336241E-2,-6.6392595E-1,7.822473E-2,-8.449627E-2,-1.2370504E-2],"categories":[],"categories_nodes":[],"categories_segments":[],"categories_sizes":[],"default_left":[0,0,0,0,0],"id":26,"left_children":[1,3,-1,-1,-1],"loss_changes":[5.4231577E0,5.2960277E-1,0E0,0E0,0E0],"parents":[2147483647,0,0,1,1],"right_children":[2,4,-1,-1,-1],"split_conditions":[8.89E2,2.9E1,7.822473E-2,-8.449627E-2,-1.2370504E-2],"split_indices":[9,6,0,0,0],"split_type":[0,0,0,0,0],"sum_hessian":[8.815637E0,5.483949E0,3.3316872E0,3.6849558E0,1.7989936E0],"tree_param":{"num_deleted":"0","num_feature":"24","num_nodes":"5","size_leaf_vector":"1"}},{"base_weights":[-4.7544383E-2,-5.702327E-1,8.049782E-2,-8.3212405E-2,-1.7765877E-1,3.5437062E-2,-4.9615014E-2],"categories":[],"categories_nodes":[],"categories_segments":[],"categories_sizes":[],"default_left":[0,0,0,0,0,0,0],"id":27,"left_children":[1,3,-1,-1,5,-1,-1],"loss_changes":[4.9088407E0,5.488088E-1,0E0,0E0,8.507121E-1,0E0,0E0],"parents":[2147483647,0,0,1,1,4,4],"right_children":[2,4,-1,-1,6,-1,-1],"split_conditions":[1.011E3,2E-1,8.049782E-2,-8.3212405E-2,3E0,3.5437062E-2,-4.9615014E-2],"split_indices":[9,15,0,0,10,0,0],"split_type":[0,0,0,0,0,0,0],"sum_hessian":[8.98604E0,5.7759085E0,3.2101316E0,2.792999E0,2.9829094E0,1.0748141E0,1.9080955E0],"tree_param":{"num_deleted":"0","num_feature":"24","num_nodes":"7","size_leaf_vector":"1"}},{"base_weights":[1.870949E-2,-7.3265666E-1,6.6204584E-1,-8.889366E-2,-9.101178E-3,8.05307E-3,8.0258824E-2],"categories":[],"categories_nodes":[],"categories_segments":[],"categories_sizes":[],"default_left":[0,0,0,0,0,0,0],"id":28,"left_children":[1,3,5,-1,-1,-1,-1],"loss_changes":[4.8491435E0,3.842938E-1,3.7580442E-1,0E0,0E0,0E0,0E0],"parents":[2147483647,0,0,1,1,2,2],"right_children":[2,4,6,-1,-1,-1,-1],"split_conditions":[6.92E2,1.04E-1,1.011E3,-8.889366E-2,-9.101178E-3,8.05307E-3,8.0258824E-2],"split_indices":[9,13,9,0,0,0,0],"split_type":[0,0,0,0,0,0,0],"sum_hessian":[8.028261E0,3.6391647E0,4.3890967E0,2.6164868E0,1.0226779E0,1.1604716E0,3.228625E0],"tree_param":{"num_deleted":"0","num_feature":"24","num_nodes":"7","size_leaf_vector":"1"}},{"base_weights":[-2.5392177E-2,-5.302235E-1,7.5432345E-2,-8.363882E-2,-4.3562427E-2,2.5708351E-2,-3.9586354E-2],"categories":[],"categories_nodes":[],"categories_segments":[],"categories_sizes":[],"default_left":[0,0,0,0,0,0,0],"id":29,"left_children":[1,3,-1,-1,5,-1,-1],"loss_changes":[4.176249E0,9.1872346E-1,0E0,0E0,4.7571233E-1,0E0,0E0],"parents":[2147483647,0,0,1,1,4,4],"right_children":[2,4,-1,-1,6,-1,-1],"split_conditions":[8.89E2,2.78E-1,7.5432345E-2,-8.363882E-2,4.04E-1,2.5708351E-2,-3.9586354E-2],"split_indices":[9,23,0,0,23,0,0],"split_type":[0,0,0,0,0,0,0],"sum_hessian":[8.593625E0,5.4105268E0,3.183098E0,2.8800344E0,2.530492E0,1.5111681E0,1.019324E0],"tree_param":{"num_deleted":"0","num_feature":"24","num_nodes":"7","size_leaf_vector":"1"}},{"base_weights":[1.4816424E-1,-5.7788026E-2,6.5434575E-1,8.7931626E-2,-9.445016E-3],"categories":[],"categories_nodes":[],"categories_segments":[],"categories_sizes":[],"default_left":[0,0,0,0,0],"id":30,"left_children":[1,-1,3,-1,-1],"loss_changes":[3.3293176E0,0E0,9.5910907E-1,0E0,0E0],"parents":[2147483647,0,0,2,2],"right_children":[2,-1,4,-1,-1],"split_conditions":[2.9E1,-5.7788026E-2,2.1E-2,8.7931626E-2,-9.445016E-3],"split_indices":[6,0,19,0,0],"split_type":[0,0,0,0,0],"sum_hessian":[7.0302086E0,2.8297267E0,4.200482E0,3.0960028E0,1.1044791E0],"tree_param":{"num_deleted":"0","num_feature":"24","num_nodes":"5","size_leaf_vector":"1"}},{"base_weights":[2.3586059E-2,-7.988455E-2,4.7279564E-1,6.6380076E-2,-1.5477426E-2],"categories":[],"categories_nodes":[],"categories_segments":[],"categories_sizes":[],"default_left":[0,0,0,0,0],"id":31,"left_children":[1,-1,3,-1,-1],"loss_changes":[3.5346236E0,0E0,8.405E-1,0E0,0E0],"parents":[2147483647,0,0,2,2],"right_children":[2,-1,4,-1,-1],"split_conditions":[1.35E-1,-7.988455E-2,3.5E-2,6.6380076E-2,-1.5477426E-2],"split_indices":[15,0,19,0,0],"split_type":[0,0,0,0,0],"sum_hessian":[7.545088E0,2.3903675E0,5.1547203E0,3.907664E0,1.2470561E0],"tree_param":{"num_deleted":"0","num_feature":"24","num_nodes":"5","size_leaf_vector":"1"}},{"base_weights":[4.003414E-2,-5.782916E-1,6.7820184E-2,-7.3391005E-2,-8.190985E-3],"categories":[],"categories_nodes":[],"categories_segments":[],"categories_sizes":[],"default_left":[0,0,0,0,0],"id":32,"left_children":[1,3,-1,-1,-1],"loss_changes":[3.4735293E0,2.8794396E-1,0E0,0E0,0E0],"parents":[2147483647,0,0,1,1],"right_children":[2,4,-1,-1,-1],"split_conditions":[6.92E2,2.9E1,6.7820184E-2,-7.3391005E-2,-8.190985E-3],"split_indices":[9,6,0,0,0],"split_type":[0,0,0,0,0],"sum_hessian":[6.8088346E0,3.5058317E0,3.303003E0,2.3047578E0,1.2010738E0],"tree_param":{"num_deleted":"0","num_feature":"24","num_nodes":"5","size_leaf_vector":"1"}},{"base_weights":[-1.9164774E-1,-6.476156E-1,7.083593E-2,-1.7746115E-2,-8.1288844E-2],"categories":[],"categories_nodes":[],"categories_segments":[],"categories_sizes":[],"default_left":[0,0,0,0,0],"id":33,"left_children":[1,3,-1,-1,-1],"loss_changes":[3.7264845E0,3.0701613E-1,0E0,0E0,0E0],"parents":[2147483647,0,0,1,1],"right_children":[2,4,-1,-1,-1],"split_conditions":[1.011E3,8E-2,7.083593E-2,-1.7746115E-2,-8.1288844E-2],"split_indices":[9,13,0,0,0],"split_type":[0,0,0,0,0],"sum_hessian":[6.962827E0,4.8076E0,2.1552272E0,1.7898186E0,3.0177813E0],"tree_param":{"num_deleted":"0","num_feature":"24","num_nodes":"5","size_leaf_vector":"1"}},{"base_weights":[1.9365619E-3,-4.6861E-1,8.134838E-2,-8.022525E-2,4.327561E-2,2.3884697E-2,-1.6807085E-2],"categories":[],"categories_nodes":[],"categories_segments":[],"categories_sizes":[],"default_left":[0,0,0,0,0,0,0],"id":34,"left_children":[1,3,-1,-1,5,-1,-1],"loss_changes":[3.3550925E0,9.8497343E-1,0E0,0E0,1.7010954E-1,0E0,0E0],"parents":[2147483647,0,0,1,1,4,4],"right_children":[2,4,-1,-1,6,-1,-1],"split_conditions":[8.89E2,2.67E-1,8.134838E-2,-8.022525E-2,2.41E2,2.3884697E-2,-1.6807085E-2],"split_indices":[9,23,0,0,9,0,0],"split_type":[0,0,0,0,0,0,0],"sum_hessian":[6.787677E0,4.563986E0,2.2236912E0,2.4196374E0,2.1443481E0,1.0461569E0,1.0981913E0],"tree_param":{"num_deleted":"0","num_feature":"24","num_nodes":"7","size_leaf_vector":"1"}},{"base_weights":[-4.6448894E-2,-4.223751E-1,6.762422E-2,-2.192125E-2,-7.4388094E-2,-2.9091714E-2,2.9975101E-2],"categories":[],"categories_nodes":[],"categories_segments":[],"categories_sizes":[],"default_left":[0,0,0,0,0,0,0],"id":35,"left_children":[1,3,-1,5,-1,-1,-1],"loss_changes":[2.2803962E0,6.847916E-1,0E0,3.86191E-1,0E0,0E0,0E0],"parents":[2147483647,0,0,1,1,3,3],"right_children":[2,4,-1,6,-1,-1,-1],"split_conditions":[1.011E3,6E-3,6.762422E-2,2.4E1,-7.4388094E-2,-2.9091714E-2,2.9975101E-2],"split_indices":[9,19,0,6,0,0,0],"split_type":[0,0,0,0,0,0,0],"sum_hessian":[6.342386E0,4.4454985E0,1.8968873E0,2.4553733E0,1.9901251E0,1.3892413E0,1.0661321E0],"tree_param":{"num_deleted":"0","num_feature":"24","num_nodes":"7","size_leaf_vector":"1"}},{"base_weights":[4.231195E-2,-7.308792E-2,4.1552186E-1,-1.38131445E-2,6.373685E-2],"categories":[],"categories_nodes":[],"categories_segments":[],"categories_sizes":[],"default_left":[0,0,0,0,0],"id":36,"left_children":[1,-1,3,-1,-1],"loss_changes":[2.4042242E0,0E0,7.6936424E-1,0E0,0E0],"parents":[2147483647,0,0,2,2],"right_children":[2,-1,4,-1,-1],"split_conditions":[2E-1,-7.308792E-2,2.4E1,-1.38131445E-2,6.373685E-2],"split_indices":[15,0,6,0,0],"split_type":[0,0,0,0,0],"sum_hessian":[6.2792797E0,1.732221E0,4.5470586E0,1.4087232E0,3.1383355E0],"tree_param":{"num_deleted":"0","num_feature":"24","num_nodes":"5","size_leaf_vector":"1"}},{"base_weights":[6.781961E-2,-7.0108734E-2,4.1289875E-1,6.8390846E-2,-3.0036042E-2],"categories":[],"categories_nodes":[],"categories_segments":[],"categories_sizes":[],"default_left":[0,0,0,0,0],"id":37,"left_children":[1,-1,3,-1,-1],"loss_changes":[2.1631334E0,0E0,1.2692297E0,0E0,0E0],"parents":[2147483647,0,0,2,2],"right_children":[2,-1,4,-1,-1],"split_conditions":[2E-1,-7.0108734E-2,1.4E-2,6.8390846E-2,-3.0036042E-2],"split_indices":[15,0,19,0,0],"split_type":[0,0,0,0,0],"sum_hessian":[6.061503E0,1.5580894E0,4.503413E0,3.2932582E0,1.2101551E0],"tree_param":{"num_deleted":"0","num_feature":"24","num_nodes":"5","size_leaf_vector":"1"}},{"base_weights":[-1.9450507E-1,-6.7153774E-2,6.5738656E-2],"categories":[],"categories_nodes":[],"categories_segments":[],"categories_sizes":[],"default_left":[0,0,0],"id":38,"left_children":[1,-1,-1],"loss_changes":[3.012668E0,0E0,0E0],"parents":[2147483647,0,0],"right_children":[2,-1,-1],"split_conditions":[1.011E3,-6.7153774E-2,6.5738656E-2],"split_indices":[9,0,0],"split_type":[0,0,0],"sum_hessian":[5.3271008E0,3.5505908E0,1.7765099E0],"tree_param":{"num_deleted":"0","num_feature":"24","num_nodes":"3","size_leaf_vector":"1"}},{"base_weights":[-5.531061E-2,-5.0057435E-1,4.410214E-1,-6.5826535E-2,-7.2505185E-3,2.8505E-3,6.305616E-2],"categories":[],"categories_nodes":[],"categories_segments":[],"categories_sizes":[],"default_left":[0,0,0,0,0,0,0],"id":39,"left_children":[1,3,5,-1,-1,-1,-1],"loss_changes":[1.6231916E0,2.096867E-1,2.5822407E-1,0E0,0E0,0E0,0E0],"parents":[2147483647,0,0,1,1,2,2],"right_children":[2,4,6,-1,-1,-1,-1],"split_conditions":[6.92E2,1.53E-1,3.2E1,-6.5826535E-2,-7.2505185E-3,2.8505E-3,6.305616E-2],"split_indices":[9,20,6,0,0,0,0],"split_type":[0,0,0,0,0,0,0],"sum_hessian":[5.3458652E0,2.8133962E0,2.5324693E0,1.6630219E0,1.1503743E0,1.1594421E0,1.3730271E0],"tree_param":{"num_deleted":"0","num_feature":"24","num_nodes":"7","size_leaf_vector":"1"}},{"base_weights":[1.5084443E-2,-3.7567383E-1,6.272192E-2,-7.2914466E-2,5.918149E-3],"categories":[],"categories_nodes":[],"categories_segments":[],"categories_sizes":[],"default_left":[0,0,0,0,0],"id":40,"left_children":[1,3,-1,-1,-1],"loss_changes":[1.8239369E0,7.622568E-1,0E0,0E0,0E0],"parents":[2147483647,0,0,1,1],"right_children":[2,4,-1,-1,-1],"split_conditions":[8.45E2,2.78E-1,6.272192E-2,-7.2914466E-2,5.918149E-3],"split_indices":[9,23,0,0,0],"split_type":[0,0,0,0,0],"sum_hessian":[5.6401706E0,3.6783638E0,1.9618069E0,1.6557447E0,2.0226192E0],"tree_param":{"num_deleted":"0","num_feature":"24","num_nodes":"5","size_leaf_vector":"1"}},{"base_weights":[-3.430153E-1,-7.9555586E-2,5.9200007E-2],"categories":[],"categories_nodes":[],"categories_segments":[],"categories_sizes":[],"default_left":[0,0,0],"id":41,"left_children":[1,-1,-1],"loss_changes":[2.8078475E0,0E0,0E0],"parents":[2147483647,0,0],"right_children":[2,-1,-1],"split_conditions":[1.011E3,-7.9555586E-2,5.9200007E-2],"split_indices":[9,0,0],"split_type":[0,0,0],"sum_hessian":[4.5228076E0,3.1482363E0,1.3745711E0],"tree_param":{"num_deleted":"0","num_feature":"24","num_nodes":"3","size_leaf_vector":"1"}},{"base_weights":[2.2261664E-2,-6.2783584E-2,3.0654758E-1,-1.0148878E-1,7.443691E-2,1.7850343E-2,-3.2248322E-2],"categories":[],"categories_nodes":[],"categories_segments":[],"categories_sizes":[],"default_left":[0,0,0,0,0,0,0],"id":42,"left_children":[1,-1,3,5,-1,-1,-1],"loss_changes":[1.3484654E0,0E0,9.7303665E-1,2.7291888E-1,0E0,0E0,0E0],"parents":[2147483647,0,0,2,2,3,3],"right_children":[2,-1,4,6,-1,-1,-1],"split_conditions":[2E-1,-6.2783584E-2,8.45E2,7.3E1,7.443691E-2,1.7850343E-2,-3.2248322E-2],"split_indices":[15,0,9,9,0,0,0],"split_type":[0,0,0,0,0,0,0],"sum_hessian":[5.2549734E0,1.2311487E0,4.0238247E0,2.480381E0,1.5434437E0,1.1789563E0,1.3014246E0],"tree_param":{"num_deleted":"0","num_feature":"24","num_nodes":"7","size_leaf_vector":"1"}},{"base_weights":[-6.1842687E-2,-3.897974E-1,4.364508E-2,-6.859397E-2,3.9427667E-3],"categories":[],"categories_nodes":[],"categories_segments":[],"categories_sizes":[],"default_left":[0,0,0,0,0],"id":43,"left_children":[1,3,-1,-1,-1],"loss_changes":[1.1374884E0,5.479738E-1,0E0,0E0,0E0],"parents":[2147483647,0,0,1,1],"right_children":[2,4,-1,-1,-1],"split_conditions":[8.89E2,4E-1,4.364508E-2,-6.859397E-2,3.9427667E-3],"split_indices":[9,23,0,0,0],"split_type":[0,0,0,0,0],"sum_hessian":[4.9195604E0,3.0981987E0,1.8213618E0,1.479402E0,1.6187967E0],"tree_param":{"num_deleted":"0","num_feature":"24","num_nodes":"5","size_leaf_vector":"1"}},{"base_weights":[-1.1129044E-1,-5.708188E-1,5.6908704E-2,-7.039088E-2,-1.1301296E-2],"categories":[],"categories_nodes":[],"categories_segments":[],"categories_sizes":[],"default_left":[0,0,0,0,0],"id":44,"left_children":[1,3,-1,-1,-1],"loss_changes":[1.9823736E0,1.4366734E-1,0E0,0E0,0E0],"parents":[2147483647,0,0,1,1],"right_children":[2,4,-1,-1,-1],"split_conditions":[8.89E2,5.02E-1,5.6908704E-2,-7.039088E-2,-1.1301296E-2],"split_indices":[9,15,0,0,0],"split_type":[0,0,0,0,0],"sum_hessian":[4.301499E0,2.663555E0,1.637944E0,1.6471397E0,1.0164154E0],"tree_param":{"num_deleted":"0","num_feature":"24","num_nodes":"5","size_leaf_vector":"1"}},{"base_weights":[-7.368348E-2,-3.2877547E-1,5.195837E-2,-5.483981E-2,1.4522149E-2],"categories":[],"categories_nodes":[],"categories_segments":[],"categories_sizes":[],"default_left":[0,0,0,0,0],"id":45,"left_children":[1,3,-1,-1,-1],"loss_changes":[1.002447E0,5.434342E-1,0E0,0E0,0E0],"parents":[2147483647,0,0,1,1],"right_children":[2,4,-1,-1,-1],"split_conditions":[1.011E3,5.64E-1,5.195837E-2,-5.483981E-2,1.4522149E-2],"split_indices":[9,15,0,0,0],"split_type":[0,0,0,0,0],"sum_hessian":[4.495132E0,3.4552653E0,1.0398667E0,2.2539504E0,1.2013148E0],"tree_param":{"num_deleted":"0","num_feature":"24","num_nodes":"5","size_leaf_vector":"1"}},{"base_weights":[4.660367E-2,-4.3516332E-1,5.8474448E-2,-5.9285372E-2,-3.4858887E-3],"categories":[],"categories_nodes":[],"categories_segments":[],"categories_sizes":[],"default_left":[0,0,0,0,0],"id":46,"left_children":[1,3,-1,-1,-1],"loss_changes":[1.6070884E0,1.8929553E-1,0E0,0E0,0E0],"parents":[2147483647,0,0,1,1],"right_children":[2,4,-1,-1,-1],"split_conditions":[6.92E2,3.3E1,5.8474448E-2,-5.9285372E-2,-3.4858887E-3],"split_indices":[9,6,0,0,0],"split_type":[0,0,0,0,0],"sum_hessian":[4.2173E0,2.3261697E0,1.8911302E0,1.323716E0,1.0024538E0],"tree_param":{"num_deleted":"0","num_feature":"24","num_nodes":"5","size_leaf_vector":"1"}},{"base_weights":[-6.2391497E-2,-5.8396783E-2,2.7001578E-1,-8.349292E-3,4.405468E-2],"categories":[],"categories_nodes":[],"categories_segments":[],"categories_sizes":[],"default_left":[0,0,0,0,0],"id":47,"left_children":[1,-1,3,-1,-1],"loss_changes":[1.0957419E0,0E0,2.7721736E-1,0E0,0E0],"parents":[2147483647,0,0,2,2],"right_children":[2,-1,4,-1,-1],"split_conditions":[9.96E-1,-5.8396783E-2,2.4E1,-8.349292E-3,4.405468E-2],"split_indices":[8,0,6,0,0],"split_type":[0,0,0,0,0],"sum_hessian":[4.410567E0,1.42221E0,2.9883568E0,1.1385504E0,1.8498065E0],"tree_param":{"num_deleted":"0","num_feature":"24","num_nodes":"5","size_leaf_vector":"1"}},{"base_weights":[-1.3151537E-2,-6.1478145E-2,3.104026E-1,-1.2776787E-2,6.244866E-2],"categories":[],"categories_nodes":[],"categories_segments":[],"categories_sizes":[],"default_left":[0,0,0,0,0],"id":48,"left_children":[1,-1,3,-1,-1],"loss_changes":[1.1929705E0,0E0,6.319648E-1,0E0,0E0],"parents":[2147483647,0,0,2,2],"right_children":[2,-1,4,-1,-1],"split_conditions":[2E-1,-6.1478145E-2,6.92E2,-1.2776787E-2,6.244866E-2],"split_indices":[15,0,9,0,0],"split_type":[0,0,0,0,0],"sum_hessian":[4.148164E0,1.1359128E0,3.0122514E0,1.5053631E0,1.5068882E0],"tree_param":{"num_deleted":"0","num_feature":"24","num_nodes":"5","size_leaf_vector":"1"}},{"base_weights":[-2.5966704E-1,-6.397628E-2,2.7908176E-2],"categories":[],"categories_nodes":[],"categories_segments":[],"categories_sizes":[],"default_left":[0,0,0],"id":49,"left_children":[1,-1,-1],"loss_changes":[1.2305546E0,0E0,0E0],"parents":[2147483647,0,0],"right_children":[2,-1,-1],"split_conditions":[5.02E-1,-6.397628E-2,2.7908176E-2],"split_indices":[15,0,0],"split_type":[0,0,0],"sum_hessian":[4.1373596E0,2.3159344E0,1.8214253E0],"tree_param":{"num_deleted":"0","num_feature":"24","num_nodes":"3","size_leaf_vector":"1"}},{"base_weights":[-7.11977E-2,-3.354994E-1,3.5252437E-2,-5.808503E-2,2.9515612E-3],"categories":[],"categories_nodes":[],"categories_segments":[],"categories_sizes":[],"default_left":[0,0,0,0,0],"id":50,"left_children":[1,3,-1,-1,-1],"loss_changes":[7.013172E-1,3.501731E-1,0E0,0E0,0E0],"parents":[2147483647,0,0,1,1],"right_children":[2,4,-1,-1,-1],"split_conditions":[8.89E2,1.53E-1,3.5252437E-2,-5.808503E-2,2.9515612E-3],"split_indices":[9,20,0,0,0],"split_type":[0,0,0,0,0],"sum_hessian":[4.206207E0,2.7186348E0,1.487572E0,1.2721994E0,1.4464355E0],"tree_param":{"num_deleted":"0","num_feature":"24","num_nodes":"5","size_leaf_vector":"1"}},{"base_weights":[-6.874254E-2,-5.8359254E-2,2.0332612E-1,-2.2457073E-2,6.726514E-2],"categories":[],"categories_nodes":[],"categories_segments":[],"categories_sizes":[],"default_left":[0,0,0,0,0],"id":51,"left_children":[1,-1,3,-1,-1],"loss_changes":[8.385741E-1,0E0,9.7527397E-1,0E0,0E0],"parents":[2147483647,0,0,2,2],"right_children":[2,-1,4,-1,-1],"split_conditions":[1.35E-1,-5.8359254E-2,8.45E2,-2.2457073E-2,6.726514E-2],"split_indices":[15,0,9,0,0],"split_type":[0,0,0,0,0],"sum_hessian":[4.139509E0,1.0353128E0,3.1041965E0,1.8965565E0,1.20764E0],"tree_param":{"num_deleted":"0","num_feature":"24","num_nodes":"5","size_leaf_vector":"1"}},{"base_weights":[3.1080863E-3,2.3288234E-1,-4.1748695E-2,4.8650023E-2,-1.9559799E-2],"categories":[],"categories_nodes":[],"categories_segments":[],"categories_sizes":[],"default_left":[0,0,0,0,0],"id":52,"left_children":[1,3,-1,-1,-1],"loss_changes":[5.728888E-1,5.108154E-1,0E0,0E0,0E0],"parents":[2147483647,0,0,1,1],"right_children":[2,4,-1,-1,-1],"split_conditions":[2.1E-2,4.4E1,-4.1748695E-2,4.8650023E-2,-1.9559799E-2],"split_indices":[19,6,0,0,0],"split_type":[0,0,0,0,0],"sum_hessian":[3.9219174E0,2.8249362E0,1.0969814E0,1.6895068E0,1.1354294E0],"tree_param":{"num_deleted":"0","num_feature":"24","num_nodes":"5","size_leaf_vector":"1"}},{"base_weights":[-4.0204138E-2,-6.0115468E-2,3.494385E-1,6.130333E-2,-1.102388E-3],"categories":[],"categories_nodes":[],"categories_segments":[],"categories_sizes":[],"default_left":[0,0,0,0,0],"id":53,"left_children":[1,-1,3,-1,-1],"loss_changes":[1.2676862E0,0E0,3.3815566E-1,0E0,0E0],"parents":[2147483647,0,0,2,2],"right_children":[2,-1,4,-1,-1],"split_conditions":[6.5E-2,-6.0115468E-2,4.54E2,6.130333E-2,-1.102388E-3],"split_indices":[20,0,9,0,0],"split_type":[0,0,0,0,0],"sum_hessian":[3.8388088E0,1.3510001E0,2.4878087E0,1.0322621E0,1.4555466E0],"tree_param":{"num_deleted":"0","num_feature":"24","num_nodes":"5","size_leaf_vector":"1"}},{"base_weights":[8.000669E-2,-6.0211416E-2,5.270591E-1,1.1445785E-2,6.5810576E-2],"categories":[],"categories_nodes":[],"categories_segments":[],"categories_sizes":[],"default_left":[0,0,0,0,0],"id":54,"left_children":[1,-1,3,-1,-1],"loss_changes":[1.7552121E0,0E0,1.0751861E-1,0E0,0E0],"parents":[2147483647,0,0,2,2],"right_children":[2,-1,4,-1,-1],"split_conditions":[3.1E-2,-6.0211416E-2,5.16E-1,1.1445785E-2,6.5810576E-2],"split_indices":[20,0,15,0,0],"split_type":[0,0,0,0,0],"sum_hessian":[3.7151718E0,1.3335552E0,2.3816166E0,1.0256773E0,1.3559394E0],"tree_param":{"num_deleted":"0","num_feature":"24","num_nodes":"5","size_leaf_vector":"1"}},{"base_weights":[1.1037912E-1,-2.069419E-1,5.1529754E-2,2.4845814E-2,-5.386597E-2],"categories":[],"categories_nodes":[],"categories_segments":[],"categories_sizes":[],"default_left":[0,0,0,0,0],"id":55,"left_children":[1,3,-1,-1,-1],"loss_changes":[6.9480187E-1,6.293014E-1,0E0,0E0,0E0],"parents":[2147483647,0,0,1,1],"right_children":[2,4,-1,-1,-1],"split_conditions":[8.45E2,7.3E1,5.1529754E-2,2.4845814E-2,-5.386597E-2],"split_indices":[9,9,0,0,0],"split_type":[0,0,0,0,0],"sum_hessian":[3.577549E0,2.2798421E0,1.2977067E0,1.0665797E0,1.2132626E0],"tree_param":{"num_deleted":"0","num_feature":"24","num_nodes":"5","size_leaf_vector":"1"}},{"base_weights":[1.7151314E-1,-4.053596E-2,6.221295E-2],"categories":[],"categories_nodes":[],"categories_segments":[],"categories_sizes":[],"default_left":[0,0,0],"id":56,"left_children":[1,-1,-1],"loss_changes":[1.1722813E0,0E0,0E0],"parents":[2147483647,0,0],"right_children":[2,-1,-1],"split_conditions":[3.3E1,-4.053596E-2,6.221295E-2],"split_indices":[6,0,0],"split_type":[0,0,0],"sum_hessian":[2.5395312E0,1.1577846E0,1.3817466E0],"tree_param":{"num_deleted":"0","num_feature":"24","num_nodes":"3","size_leaf_vector":"1"}},{"base_weights":[-4.5512423E-2,-5.246074E-2,3.027251E-1,5.235687E-2,-7.2110444E-3],"categories":[],"categories_nodes":[],"categories_segments":[],"categories_sizes":[],"default_left":[0,0,0,0,0],"id":57,"left_children":[1,-1,3,-1,-1],"loss_changes":[9.157131E-1,0E0,3.0772004E-1,0E0,0E0],"parents":[2147483647,0,0,2,2],"right_children":[2,-1,4,-1,-1],"split_conditions":[2.13E-1,-5.246074E-2,4.56E-1,5.235687E-2,-7.2110444E-3],"split_indices":[23,0,23,0,0],"split_type":[0,0,0,0,0],"sum_hessian":[3.5367196E0,1.275483E0,2.2612367E0,1.1732135E0,1.0880232E0],"tree_param":{"num_deleted":"0","num_feature":"24","num_nodes":"5","size_leaf_vector":"1"}},{"base_weights":[-2.7669206E-1,-5.477334E-2,1.8225493E-2],"categories":[],"categories_nodes":[],"categories_segments":[],"categories_sizes":[],"default_left":[0,0,0],"id":58,"left_children":[1,-1,-1],"loss_changes":[5.868099E-1,0E0,0E0],"parents":[2147483647,0,0],"right_children":[2,-1,-1],"split_conditions":[4E0,-5.477334E-2,1.8225493E-2],"split_indices":[10,0,0],"split_type":[0,0,0],"sum_hessian":[2.9148543E0,1.7109551E0,1.203899E0],"tree_param":{"num_deleted":"0","num_feature":"24","num_nodes":"3","size_leaf_vector":"1"}},{"base_weights":[4.979633E-2,-1.6512121E-1,3.6291804E-2,1.6627865E-2,-3.901069E-2],"categories":[],"categories_nodes":[],"categories_segments":[],"categories_sizes":[],"default_left":[0,0,0,0,0],"id":59,"left_children":[1,3,-1,-1,-1],"loss_changes":[3.961529E-1,3.3701453E-1,0E0,0E0,0E0],"parents":[2147483647,0,0,1,1],"right_children":[2,4,-1,-1,-1],"split_conditions":[8.89E2,7.3E1,3.6291804E-2,1.6627865E-2,-3.901069E-2],"split_indices":[9,9,0,0,0],"split_type":[0,0,0,0,0],"sum_hessian":[3.9962955E0,2.6500442E0,1.3462511E0,1.1771137E0,1.4729306E0],"tree_param":{"num_deleted":"0","num_feature":"24","num_nodes":"5","size_leaf_vector":"1"}},{"base_weights":[1.2642394E-1,-1.8691035E-2,3.016031E-1,5.0215986E-2,-4.0936777E-3],"categories":[],"categories_nodes":[],"categories_segments":[],"categories_sizes":[],"default_left":[0,0,0,0,0],"id":60,"left_children":[1,-1,3,-1,-1],"loss_changes":[3.1941772E-1,0E0,2.580054E-1,0E0,0E0],"parents":[2147483647,0,0,2,2],"right_children":[2,-1,4,-1,-1],"split_conditions":[2.05E-1,-1.8691035E-2,4.04E-1,5.0215986E-2,-4.0936777E-3],"split_indices":[23,0,23,0,0],"split_type":[0,0,0,0,0],"sum_hessian":[3.792251E0,1.3358737E0,2.4563775E0,1.2553703E0,1.2010072E0],"tree_param":{"num_deleted":"0","num_feature":"24","num_nodes":"5","size_leaf_vector":"1"}},{"base_weights":[1.5396455E-1,4.5371678E-2,-4.2546656E-2],"categories":[],"categories_nodes":[],"categories_segments":[],"categories_sizes":[],"default_left":[0,0,0],"id":61,"left_children":[1,-1,-1],"loss_changes":[9.848648E-1,0E0,0E0],"parents":[2147483647,0,0],"right_children":[2,-1,-1],"split_conditions":[2.1E-2,4.5371678E-2,-4.2546656E-2],"split_indices":[19,0,0],"split_type":[0,0,0],"sum_hessian":[3.5589418E0,2.4885318E0,1.0704099E0],"tree_param":{"num_deleted":"0","num_feature":"24","num_nodes":"3","size_leaf_vector":"1"}},{"base_weights":[-4.920166E-2,2.9022688E-2,-4.6325438E-2],"categories":[],"categories_nodes":[],"categories_segments":[],"categories_sizes":[],"default_left":[0,0,0],"id":62,"left_children":[1,-1,-1],"loss_changes":[7.097828E-1,0E0,0E0],"parents":[2147483647,0,0],"right_children":[2,-1,-1],"split_conditions":[2.16E-1,2.9022688E-2,-4.6325438E-2],"split_indices":[22,0,0],"split_type":[0,0,0],"sum_hessian":[3.0937002E0,1.8643872E0,1.2293131E0],"tree_param":{"num_deleted":"0","num_feature":"24","num_nodes":"3","size_leaf_vector":"1"}},{"base_weights":[1.5427914E-2,-2.8339416E-2,2.2768621E-1,5.2642137E-2,-1.2141339E-2],"categories":[],"categories_nodes":[],"categories_segments":[],"categories_sizes":[],"default_left":[0,0,0,0,0],"id":63,"left_children":[1,-1,3,-1,-1],"loss_changes":[3.7029317E-1,0E0,4.1569304E-1,0E0,0E0],"parents":[2147483647,0,0,2,2],"right_children":[2,-1,4,-1,-1],"split_conditions":[3.4E-2,-2.8339416E-2,5.17E2,5.2642137E-2,-1.2141339E-2],"split_indices":[20,0,9,0,0],"split_type":[0,0,0,0,0],"sum_hessian":[3.8207548E0,1.4476217E0,2.373133E0,1.0050989E0,1.3680341E0],"tree_param":{"num_deleted":"0","num_feature":"24","num_nodes":"5","size_leaf_vector":"1"}},{"base_weights":[2.1241203E-2,-2.6382625E-2,3.8943063E-2],"categories":[],"categories_nodes":[],"categories_segments":[],"categories_sizes":[],"default_left":[0,0,0],"id":64,"left_children":[1,-1,-1],"loss_changes":[5.4682076E-1,0E0,0E0],"parents":[2147483647,0,0],"right_children":[2,-1,-1],"split_conditions":[2.04E-1,-2.6382625E-2,3.8943063E-2],"split_indices":[20,0,0],"split_type":[0,0,0],"sum_hessian":[3.2309809E0,1.9808075E0,1.2501733E0],"tree_param":{"num_deleted":"0","num_feature":"24","num_nodes":"3","size_leaf_vector":"1"}},{"base_weights":[-1.5099491E-2,-4.668028E-2,4.9380478E-2],"categories":[],"categories_nodes":[],"categories_segments":[],"categories_sizes":[],"default_left":[0,0,0],"id":65,"left_children":[1,-1,-1],"loss_changes":[1.1311301E0,0E0,0E0],"parents":[2147483647,0,0],"right_children":[2,-1,-1],"split_conditions":[3.34E-1,-4.668028E-2,4.9380478E-2],"split_indices":[21,0,0],"split_type":[0,0,0],"sum_hessian":[2.917893E0,1.5896498E0,1.3282431E0],"tree_param":{"num_deleted":"0","num_feature":"24","num_nodes":"3","size_leaf_vector":"1"}},{"base_weights":[-8.78341E-2,-5.494224E-2,2.1402156E-1,4.5373645E-2,-7.4100182E-3],"categories":[],"categories_nodes":[],"categories_segments":[],"categories_sizes":[],"default_left":[0,0,0,0,0],"id":66,"left_children":[1,-1,3,-1,-1],"loss_changes":[7.398441E-1,0E0,2.6982042E-1,0E0,0E0],"parents":[2147483647,0,0,2,2],"right_children":[2,-1,4,-1,-1],"split_conditions":[3E-1,-5.494224E-2,2.24E-1,4.5373645E-2,-7.4100182E-3],"split_indices":[15,0,22,0,0],"split_type":[0,0,0,0,0],"sum_hessian":[3.465961E0,1.0461191E0,2.419842E0,1.0071192E0,1.4127227E0],"tree_param":{"num_deleted":"0","num_feature":"24","num_nodes":"5","size_leaf_vector":"1"}},{"base_weights":[6.376246E-2,-2.496649E-1,5.1195245E-2,2.061612E-2,-5.6307234E-2],"categories":[],"categories_nodes":[],"categories_segments":[],"categories_sizes":[],"default_left":[0,0,0,0,0],"id":67,"left_children":[1,3,-1,-1,-1],"loss_changes":[7.380856E-1,5.773337E-1,0E0,0E0,0E0],"parents":[2147483647,0,0,1,1],"right_children":[2,4,-1,-1,-1],"split_conditions":[8.45E2,7.3E1,5.1195245E-2,2.061612E-2,-5.6307234E-2],"split_indices":[9,9,0,0,0],"split_type":[0,0,0,0,0],"sum_hessian":[3.3443248E0,2.2287018E0,1.1156229E0,1.0474555E0,1.1812464E0],"tree_param":{"num_deleted":"0","num_feature":"24","num_nodes":"5","size_leaf_vector":"1"}},{"base_weights":[-5.7458397E-2,-5.6039046E-2,4.6394255E-2],"categories":[],"categories_nodes":[],"categories_segments":[],"categories_sizes":[],"default_left":[0,0,0],"id":68,"left_children":[1,-1,-1],"loss_changes":[1.2938734E0,0E0,0E0],"parents":[2147483647,0,0],"right_children":[2,-1,-1],"split_conditions":[6.92E2,-5.6039046E-2,4.6394255E-2],"split_indices":[9,0,0],"split_type":[0,0,0],"sum_hessian":[2.9426737E0,1.4598019E0,1.4828718E0],"tree_param":{"num_deleted":"0","num_feature":"24","num_nodes":"3","size_leaf_vector":"1"}},{"base_weights":[3.5068113E-1,5.6551874E-2,-1.0851313E-2],"categories":[],"categories_nodes":[],"categories_segments":[],"categories_sizes":[],"default_left":[0,0,0],"id":69,"left_children":[1,-1,-1],"loss_changes":[4.5911926E-1,0E0,0E0],"parents":[2147483647,0,0],"right_children":[2,-1,-1],"split_conditions":[6E-3,5.6551874E-2,-1.0851313E-2],"split_indices":[19,0,0],"split_type":[0,0,0],"sum_hessian":[3.0318708E0,1.9077631E0,1.1241077E0],"tree_param":{"num_deleted":"0","num_feature":"24","num_nodes":"3","size_leaf_vector":"1"}},{"base_weights":[1.586004E-2,2.7511263E-2,-3.004924E-2],"categories":[],"categories_nodes":[],"categories_segments":[],"categories_sizes":[],"default_left":[0,0,0],"id":70,"left_children":[1,-1,-1],"loss_changes":[4.263272E-1,0E0,0E0],"parents":[2147483647,0,0],"right_children":[2,-1,-1],"split_conditions":[2.24E-1,2.7511263E-2,-3.004924E-2],"split_indices":[22,0,0],"split_type":[0,0,0],"sum_hessian":[3.1901743E0,1.8249654E0,1.365209E0],"tree_param":{"num_deleted":"0","num_feature":"24","num_nodes":"3","size_leaf_vector":"1"}},{"base_weights":[-2.271532E-1,2.316034E-2,-4.724483E-2],"categories":[],"categories_nodes":[],"categories_segments":[],"categories_sizes":[],"default_left":[0,0,0],"id":71,"left_children":[1,-1,-1],"loss_changes":[5.4454803E-1,0E0,0E0],"parents":[2147483647,0,0],"right_children":[2,-1,-1],"split_conditions":[7.3E1,2.316034E-2,-4.724483E-2],"split_indices":[9,0,0],"split_type":[0,0,0],"sum_hessian":[2.8667421E0,1.0182341E0,1.848508E0],"tree_param":{"num_deleted":"0","num_feature":"24","num_nodes":"3","size_leaf_vector":"1"}},{"base_weights":[7.774387E-2,-2.1682179E-2,3.1751167E-2],"categories":[],"categories_nodes":[],"categories_segments":[],"categories_sizes":[],"default_left":[0,0,0],"id":72,"left_children":[1,-1,-1],"loss_changes":[3.6960438E-1,0E0,0E0],"parents":[2147483647,0,0],"right_children":[2,-1,-1],"split_conditions":[2.9E1,-2.1682179E-2,3.1751167E-2],"split_indices":[6,0,0],"split_type":[0,0,0],"sum_hessian":[3.2584205E0,1.5050719E0,1.7533485E0],"tree_param":{"num_deleted":"0","num_feature":"24","num_nodes":"3","size_leaf_vector":"1"}},{"base_weights":[-9.9158315E-3,-2.4240534E-1,3.2707527E-2,2.0236045E-2,-5.5353682E-2],"categories":[],"categories_nodes":[],"categories_segments":[],"categories_sizes":[],"default_left":[0,0,0,0,0],"id":73,"left_children":[1,3,-1,-1,-1],"loss_changes":[4.2337304E-1,5.5112714E-1,0E0,0E0,0E0],"parents":[2147483647,0,0,1,1],"right_children":[2,4,-1,-1,-1],"split_conditions":[8.89E2,7.3E1,3.2707527E-2,2.0236045E-2,-5.5353682E-2],"split_indices":[9,9,0,0,0],"split_type":[0,0,0,0,0],"sum_hessian":[3.3918557E0,2.1732275E0,1.2186282E0,1.0384089E0,1.1348186E0],"tree_param":{"num_deleted":"0","num_feature":"24","num_nodes":"5","size_leaf_vector":"1"}},{"base_weights":[1.5732738E-1,-1.8098878E-2,3.9610874E-2],"categories":[],"categories_nodes":[],"categories_segments":[],"categories_sizes":[],"default_left":[0,0,0],"id":74,"left_children":[1,-1,-1],"loss_changes":[4.0180013E-1,0E0,0E0],"parents":[2147483647,0,0],"right_children":[2,-1,-1],"split_conditions":[4E-1,-1.8098878E-2,3.9610874E-2],"split_indices":[23,0,0],"split_type":[0,0,0],"sum_hessian":[3.0863357E0,1.3771538E0,1.7091819E0],"tree_param":{"num_deleted":"0","num_feature":"24","num_nodes":"3","size_leaf_vector":"1"}},{"base_weights":[2.9743643E-2,-2.3285544E-2,1.9984497E-1,-1.099554E-2,4.073379E-2],"categories":[],"categories_nodes":[],"categories_segments":[],"categories_sizes":[],"default_left":[0,0,0,0,0],"id":75,"left_children":[1,-1,3,-1,-1],"loss_changes":[2.5535405E-1,0E0,2.6175457E-1,0E0,0E0],"parents":[2147483647,0,0,2,2],"right_children":[2,-1,4,-1,-1],"split_conditions":[3.1E-2,-2.3285544E-2,4E-3,-1.099554E-2,4.073379E-2],"split_indices":[20,0,18,0,0],"split_type":[0,0,0,0,0],"sum_hessian":[3.674867E0,1.299619E0,2.375248E0,1.1412957E0,1.2339523E0],"tree_param":{"num_deleted":"0","num_feature":"24","num_nodes":"5","size_leaf_vector":"1"}},{"base_weights":[4.2704083E-2,-2.2869555E-2,2.2407514E-1,-8.805779E-3,4.3731395E-2],"categories":[],"categories_nodes":[],"categories_segments":[],"categories_sizes":[],"default_left":[0,0,0,0,0],"id":76,"left_children":[1,-1,3,-1,-1],"loss_changes":[2.731489E-1,0E0,2.519838E-1,0E0,0E0],"parents":[2147483647,0,0,2,2],"right_children":[2,-1,4,-1,-1],"split_conditions":[3.1E-2,-2.2869555E-2,4E-3,-8.805779E-3,4.3731395E-2],"split_indices":[20,0,18,0,0],"split_type":[0,0,0,0,0],"sum_hessian":[3.5080402E0,1.30073E0,2.2073102E0,1.1341784E0,1.0731318E0],"tree_param":{"num_deleted":"0","num_feature":"24","num_nodes":"5","size_leaf_vector":"1"}},{"base_weights":[-4.51444E-2,-2.5753582E-1,2.9821536E-2,1.4164631E-2,-5.3125925E-2],"categories":[],"categories_nodes":[],"categories_segments":[],"categories_sizes":[],"default_left":[0,0,0,0,0],"id":77,"left_children":[1,3,-1,-1,-1],"loss_changes":[3.9195946E-1,4.256217E-1,0E0,0E0,0E0],"parents":[2147483647,0,0,1,1],"right_children":[2,4,-1,-1,-1],"split_conditions":[8.89E2,7.3E1,2.9821536E-2,1.4164631E-2,-5.3125925E-2],"split_indices":[9,9,0,0,0],"split_type":[0,0,0,0,0],"sum_hessian":[3.321579E0,2.2066E0,1.1149789E0,1.0938761E0,1.112724E0],"tree_param":{"num_deleted":"0","num_feature":"24","num_nodes":"5","size_leaf_vector":"1"}},{"base_weights":[9.4633356E-2,-2.0496506E-2,3.801115E-2],"categories":[],"categories_nodes":[],"categories_segments":[],"categories_sizes":[],"default_left":[0,0,0],"id":78,"left_children":[1,-1,-1],"loss_changes":[3.8903302E-1,0E0,0E0],"parents":[2147483647,0,0],"right_children":[2,-1,-1],"split_conditions":[2.9E1,-2.0496506E-2,3.801115E-2],"split_indices":[6,0,0],"split_type":[0,0,0],"sum_hessian":[2.6376457E0,1.4246055E0,1.2130401E0],"tree_param":{"num_deleted":"0","num_feature":"24","num_nodes":"3","size_leaf_vector":"1"}},{"base_weights":[-2.3428063E-1,-5.3261794E-2,1.7477574E-2],"categories":[],"categories_nodes":[],"categories_segments":[],"categories_sizes":[],"default_left":[0,0,0],"id":79,"left_children":[1,-1,-1],"loss_changes":[5.777029E-1,0E0,0E0],"parents":[2147483647,0,0],"right_children":[2,-1,-1],"split_conditions":[5.16E-1,-5.3261794E-2,1.7477574E-2],"split_indices":[15,0,0],"split_type":[0,0,0],"sum_hessian":[2.9710507E0,1.5433636E0,1.427687E0],"tree_param":{"num_deleted":"0","num_feature":"24","num_nodes":"3","size_leaf_vector":"1"}},{"base_weights":[6.1111055E-2,2.4630835E-2,-1.6892E-2],"categories":[],"categories_nodes":[],"categories_segments":[],"categories_sizes":[],"default_left":[0,0,0],"id":80,"left_children":[1,-1,-1],"loss_changes":[2.2631362E-1,0E0,0E0],"parents":[2147483647,0,0],"right_children":[2,-1,-1],"split_conditions":[2.24E-1,2.4630835E-2,-1.6892E-2],"split_indices":[22,0,0],"split_type":[0,0,0],"sum_hessian":[3.3357363E0,1.8087533E0,1.5269831E0],"tree_param":{"num_deleted":"0","num_feature":"24","num_nodes":"3","size_leaf_vector":"1"}},{"base_weights":[1.6719276E-1,3.6718935E-2,-1.7692048E-2],"categories":[],"categories_nodes":[],"categories_segments":[],"categories_sizes":[],"default_left":[0,0,0],"id":81,"left_children":[1,-1,-1],"loss_changes":[3.3270115E-1,0E0,0E0],"parents":[2147483647,0,0],"right_children":[2,-1,-1],"split_conditions":[7E-3,3.6718935E-2,-1.7692048E-2],"split_indices":[19,0,0],"split_type":[0,0,0],"sum_hessian":[2.8903239E0,1.7855266E0,1.1047972E0],"tree_param":{"num_deleted":"0","num_feature":"24","num_nodes":"3","size_leaf_vector":"1"}},{"base_weights":[-6.9894083E-3,2.4978314E-2,-1.9860888E-2],"categories":[],"categories_nodes":[],"categories_segments":[],"categories_sizes":[],"default_left":[0,0,0],"id":82,"left_children":[1,-1,-1],"loss_changes":[2.4748263E-1,0E0,0E0],"parents":[2147483647,0,0],"right_children":[2,-1,-1],"split_conditions":[3E0,2.4978314E-2,-1.9860888E-2],"split_indices":[10,0,0],"split_type":[0,0,0],"sum_hessian":[3.0216045E0,1.1615609E0,1.8600436E0],"tree_param":{"num_deleted":"0","num_feature":"24","num_nodes":"3","size_leaf_vector":"1"}},{"base_weights":[-1.48322E-1,-4.392174E-2,2.970587E-2],"categories":[],"categories_nodes":[],"categories_segments":[],"categories_sizes":[],"default_left":[0,0,0],"id":83,"left_children":[1,-1,-1],"loss_changes":[6.3882464E-1,0E0,0E0],"parents":[2147483647,0,0],"right_children":[2,-1,-1],"split_conditions":[8.45E2,-4.392174E-2,2.970587E-2],"split_indices":[9,0,0],"split_type":[0,0,0],"sum_hessian":[2.9236991E0,1.7769456E0,1.1467537E0],"tree_param":{"num_deleted":"0","num_feature":"24","num_nodes":"3","size_leaf_vector":"1"}},{"base_weights":[-3.7888102E-2,-3.5089303E-2,4.2520452E-2],"categories":[],"categories_nodes":[],"categories_segments":[],"categories_sizes":[],"default_left":[0,0,0],"id":84,"left_children":[1,-1,-1],"loss_changes":[7.090127E-1,0E0,0E0],"parents":[2147483647,0,0],"right_children":[2,-1,-1],"split_conditions":[8.89E2,-3.5089303E-2,4.2520452E-2],"split_indices":[9,0,0],"split_type":[0,0,0],"sum_hessian":[2.8620934E0,1.8523624E0,1.0097309E0],"tree_param":{"num_deleted":"0","num_feature":"24","num_nodes":"3","size_leaf_vector":"1"}},{"base_weights":[5.343733E-2,-1.553195E-2,2.4604777E-2],"categories":[],"categories_nodes":[],"categories_segments":[],"categories_sizes":[],"default_left":[0,0,0],"id":85,"left_children":[1,-1,-1],"loss_changes":[1.7576289E-1,0E0,0E0],"parents":[2147483647,0,0],"right_children":[2,-1,-1],"split_conditions":[3.1E1,-1.553195E-2,2.4604777E-2],"split_indices":[6,0,0],"split_type":[0,0,0],"sum_hessian":[2.4208195E0,1.2546265E0,1.1661929E0],"tree_param":{"num_deleted":"0","num_feature":"24","num_nodes":"3","size_leaf_vector":"1"}},{"base_weights":[1.9964904E-1,-1.2528683E-2,3.5688292E-2],"categories":[],"categories_nodes":[],"categories_segments":[],"categories_sizes":[],"default_left":[0,0,0],"id":86,"left_children":[1,-1,-1],"loss_changes":[2.4730213E-1,0E0,0E0],"parents":[2147483647,0,0],"right_children":[2,-1,-1],"split_conditions":[3.1E-2,-1.2528683E-2,3.5688292E-2],"split_indices":[20,0,0],"split_type":[0,0,0],"sum_hessian":[2.9652705E0,1.0332215E0,1.932049E0],"tree_param":{"num_deleted":"0","num_feature":"24","num_nodes":"3","size_leaf_vector":"1"}},{"base_weights":[4.371423E-3,2.3925092E-2,-2.7332542E-2],"categories":[],"categories_nodes":[],"categories_segments":[],"categories_sizes":[],"default_left":[0,0,0],"id":87,"left_children":[1,-1,-1],"loss_changes":[3.362371E-1,0E0,0E0],"parents":[2147483647,0,0],"right_children":[2,-1,-1],"split_conditions":[2.24E-1,2.3925092E-2,-2.7332542E-2],"split_indices":[22,0,0],"split_type":[0,0,0],"sum_hessian":[3.1524346E0,1.7828897E0,1.3695449E0],"tree_param":{"num_deleted":"0","num_feature":"24","num_nodes":"3","size_leaf_vector":"1"}},{"base_weights":[4.457541E-2,-2.048455E-2,2.101249E-1,3.8087975E-2,-5.7210103E-3],"categories":[],"categories_nodes":[],"categories_segments":[],"categories_sizes":[],"default_left":[0,0,0,0,0],"id":88,"left_children":[1,-1,3,-1,-1],"loss_changes":[2.2088838E-1,0E0,1.6249931E-1,0E0,0E0],"parents":[2147483647,0,0,2,2],"right_children":[2,-1,4,-1,-1],"split_conditions":[6.5E-2,-2.048455E-2,5E1,3.8087975E-2,-5.7210103E-3],"split_indices":[20,0,6,0,0],"split_type":[0,0,0,0,0],"sum_hessian":[3.3070667E0,1.2246348E0,2.0824318E0,1.0115784E0,1.0708535E0],"tree_param":{"num_deleted":"0","num_feature":"24","num_nodes":"5","size_leaf_vector":"1"}},{"base_weights":[-7.361261E-2,1.8336236E-2,-2.4279384E-2],"categories":[],"categories_nodes":[],"categories_segments":[],"categories_sizes":[],"default_left":[0,0,0],"id":89,"left_children":[1,-1,-1],"loss_changes":[2.012919E-1,0E0,0E0],"parents":[2147483647,0,0],"right_children":[2,-1,-1],"split_conditions":[1.31E2,1.8336236E-2,-2.4279384E-2],"split_indices":[9,0,0],"split_type":[0,0,0],"sum_hessian":[2.6060135E0,1.0012934E0,1.60472E0],"tree_param":{"num_deleted":"0","num_feature":"24","num_nodes":"3","size_leaf_vector":"1"}},{"base_weights":[1.3824543E-1,-1.9108867E-2,3.571905E-2],"categories":[],"categories_nodes":[],"categories_segments":[],"categories_sizes":[],"default_left":[0,0,0],"id":90,"left_children":[1,-1,-1],"loss_changes":[3.3865142E-1,0E0,0E0],"parents":[2147483647,0,0],"right_children":[2,-1,-1],"split_conditions":[3E-1,-1.9108867E-2,3.571905E-2],"split_indices":[15,0,0],"split_type":[0,0,0],"sum_hessian":[2.7499812E0,1.1489605E0,1.6010207E0],"tree_param":{"num_deleted":"0","num_feature":"24","num_nodes":"3","size_leaf_vector":"1"}},{"base_weights":[8.456658E-2,-1.5842235E-2,2.4109315E-2],"categories":[],"categories_nodes":[],"categories_segments":[],"categories_sizes":[],"default_left":[0,0,0],"id":91,"left_children":[1,-1,-1],"loss_changes":[1.9579096E-1,0E0,0E0],"parents":[2147483647,0,0],"right_children":[2,-1,-1],"split_conditions":[2.67E-1,-1.5842235E-2,2.4109315E-2],"split_indices":[23,0,0],"split_type":[0,0,0],"sum_hessian":[3.1435425E0,1.2268664E0,1.9166762E0],"tree_param":{"num_deleted":"0","num_feature":"24","num_nodes":"3","size_leaf_vector":"1"}},{"base_weights":[7.7580206E-2,2.82362E-2,-9.0346135E-2,-3.479241E-2,2.0961132E-2],"categories":[],"categories_nodes":[],"categories_segments":[],"categories_sizes":[],"default_left":[0,0,0,0,0],"id":92,"left_children":[1,-1,3,-1,-1],"loss_changes":[1.6810799E-1,0E0,3.0749512E-1,0E0,0E0],"parents":[2147483647,0,0,2,2],"right_children":[2,-1,4,-1,-1],"split_conditions":[3E0,2.82362E-2,8.6E-2,-3.479241E-2,2.0961132E-2],"split_indices":[10,0,18,0,0],"split_type":[0,0,0,0,0],"sum_hessian":[3.1466975E0,1.110729E0,2.0359685E0,1.0093302E0,1.0266383E0],"tree_param":{"num_deleted":"0","num_feature":"24","num_nodes":"5","size_leaf_vector":"1"}},{"base_weights":[3.060415E-2,2.531054E-2,-2.5722345E-2],"categories":[],"categories_nodes":[],"categories_segments":[],"categories_sizes":[],"default_left":[0,0,0],"id":93,"left_children":[1,-1,-1],"loss_changes":[3.0895892E-1,0E0,0E0],"parents":[2147483647,0,0],"right_children":[2,-1,-1],"split_conditions":[2.2E-1,2.531054E-2,-2.5722345E-2],"split_indices":[22,0,0],"split_type":[0,0,0],"sum_hessian":[2.8077235E0,1.6516067E0,1.1561168E0],"tree_param":{"num_deleted":"0","num_feature":"24","num_nodes":"3","size_leaf_vector":"1"}},{"base_weights":[-4.6242863E-2,2.0421274E-2,-3.064987E-2],"categories":[],"categories_nodes":[],"categories_segments":[],"categories_sizes":[],"default_left":[0,0,0],"id":94,"left_children":[1,-1,-1],"loss_changes":[3.291885E-1,0E0,0E0],"parents":[2147483647,0,0],"right_children":[2,-1,-1],"split_conditions":[2.16E-1,2.0421274E-2,-3.064987E-2],"split_indices":[22,0,0],"split_type":[0,0,0],"sum_hessian":[3.0900152E0,1.6843905E0,1.4056245E0],"tree_param":{"num_deleted":"0","num_feature":"24","num_nodes":"3","size_leaf_vector":"1"}},{"base_weights":[-2.646791E-1,-3.9565988E-2,3.4448144E-3],"categories":[],"categories_nodes":[],"categories_segments":[],"categories_sizes":[],"default_left":[0,0,0],"id":95,"left_children":[1,-1,-1],"loss_changes":[1.5481591E-1,0E0,0E0],"parents":[2147483647,0,0],"right_children":[2,-1,-1],"split_conditions":[4E0,-3.9565988E-2,3.4448144E-3],"split_indices":[10,0,0],"split_type":[0,0,0],"sum_hessian":[2.6035342E0,1.5862421E0,1.0172921E0],"tree_param":{"num_deleted":"0","num_feature":"24","num_nodes":"3","size_leaf_vector":"1"}},{"base_weights":[1.2188041E-1,-1.8939324E-2,3.099963E-2],"categories":[],"categories_nodes":[],"categories_segments":[],"categories_sizes":[],"default_left":[0,0,0],"id":96,"left_children":[1,-1,-1],"loss_changes":[3.0050328E-1,0E0,0E0],"parents":[2147483647,0,0],"right_children":[2,-1,-1],"split_conditions":[3E-1,-1.8939324E-2,3.099963E-2],"split_indices":[15,0,0],"split_type":[0,0,0],"sum_hessian":[3.1292791E0,1.1762155E0,1.9530636E0],"tree_param":{"num_deleted":"0","num_feature":"24","num_nodes":"3","size_leaf_vector":"1"}},{"base_weights":[1.8287385E-1,-2.0861166E-2,4.664538E-2],"categories":[],"categories_nodes":[],"categories_segments":[],"categories_sizes":[],"default_left":[0,0,0],"id":97,"left_children":[1,-1,-1],"loss_changes":[5.117297E-1,0E0,0E0],"parents":[2147483647,0,0],"right_children":[2,-1,-1],"split_conditions":[3.1E-2,-2.0861166E-2,4.664538E-2],"split_indices":[20,0,0],"split_type":[0,0,0],"sum_hessian":[2.7329452E0,1.2591027E0,1.4738425E0],"tree_param":{"num_deleted":"0","num_feature":"24","num_nodes":"3","size_leaf_vector":"1"}},{"base_weights":[2.962742E-1,-4.9393196E-3,4.477248E-2],"categories":[],"categories_nodes":[],"categories_segments":[],"categories_sizes":[],"default_left":[0,0,0],"id":98,"left_children":[1,-1,-1],"loss_changes":[2.147282E-1,0E0,0E0],"parents":[2147483647,0,0],"right_children":[2,-1,-1],"split_conditions":[2.67E-1,-4.9393196E-3,4.477248E-2],"split_indices":[23,0,0],"split_type":[0,0,0],"sum_hessian":[2.6792367E0,1.021547E0,1.6576897E0],"tree_param":{"num_deleted":"0","num_feature":"24","num_nodes":"3","size_leaf_vector":"1"}},{"base_weights":[-7.298346E-2,1.6544774E-2,-3.1937636E-2],"categories":[],"categories_nodes":[],"categories_segments":[],"categories_sizes":[],"default_left":[0,0,0],"id":99,"left_children":[1,-1,-1],"loss_changes":[2.9613116E-1,0E0,0E0],"parents":[2147483647,0,0],"right_children":[2,-1,-1],"split_conditions":[2.24E-1,1.6544774E-2,-3.1937636E-2],"split_indices":[22,0,0],"split_type":[0,0,0],"sum_hessian":[3.141283E0,1.7633921E0,1.377891E0],"tree_param":{"num_deleted":"0","num_feature":"24","num_nodes":"3","size_leaf_vector":"1"}},{"base_weights":[-5.6312937E-2,-2.6165117E-2,2.7075931E-2],"categories":[],"categories_nodes":[],"categories_segments":[],"categories_sizes":[],"default_left":[0,0,0],"id":100,"left_children":[1,-1,-1],"loss_changes":[3.404704E-1,0E0,0E0],"parents":[2147483647,0,0],"right_children":[2,-1,-1],"split_conditions":[8.45E2,-2.6165117E-2,2.7075931E-2],"split_indices":[9,0,0],"split_type":[0,0,0],"sum_hessian":[3.0146542E0,1.97485E0,1.0398042E0],"tree_param":{"num_deleted":"0","num_feature":"24","num_nodes":"3","size_leaf_vector":"1"}},{"base_weights":[4.682854E-3,-1.9858638E-2,1.6439423E-2],"categories":[],"categories_nodes":[],"categories_segments":[],"categories_sizes":[],"default_left":[0,0,0],"id":101,"left_children":[1,-1,-1],"loss_changes":[1.5701476E-1,0E0,0E0],"parents":[2147483647,0,0],"right_children":[2,-1,-1],"split_conditions":[3.4E-2,-1.9858638E-2,1.6439423E-2],"split_indices":[20,0,0],"split_type":[0,0,0],"sum_hessian":[2.830913E0,1.1385016E0,1.6924114E0],"tree_param":{"num_deleted":"0","num_feature":"24","num_nodes":"3","size_leaf_vector":"1"}},{"base_weights":[2.3893233E-1,-1.7527094E-2,4.833032E-2],"categories":[],"categories_nodes":[],"categories_segments":[],"categories_sizes":[],"default_left":[0,0,0],"id":102,"left_children":[1,-1,-1],"loss_changes":[4.774869E-1,0E0,0E0],"parents":[2147483647,0,0],"right_children":[2,-1,-1],"split_conditions":[1.5E-1,-1.7527094E-2,4.833032E-2],"split_indices":[21,0,0],"split_type":[0,0,0],"sum_hessian":[2.8804681E0,1.1737516E0,1.7067165E0],"tree_param":{"num_deleted":"0","num_feature":"24","num_nodes":"3","size_leaf_vector":"1"}},{"base_weights":[-7.637145E-2,1.911051E-2,-3.5163693E-2],"categories":[],"categories_nodes":[],"categories_segments":[],"categories_sizes":[],"default_left":[0,0,0],"id":103,"left_children":[1,-1,-1],"loss_changes":[3.5965085E-1,0E0,0E0],"parents":[2147483647,0,0],"right_children":[2,-1,-1],"split_conditions":[2.24E-1,1.911051E-2,-3.5163693E-2],"split_indices":[22,0,0],"split_type":[0,0,0],"sum_hessian":[2.972062E0,1.6624223E0,1.3096398E0],"tree_param":{"num_deleted":"0","num_feature":"24","num_nodes":"3","size_leaf_vector":"1"}},{"base_weights":[2.7131926E-2,-2.4803203E-2,2.6085747E-2],"categories":[],"categories_nodes":[],"categories_segments":[],"categories_sizes":[],"default_left":[0,0,0],"id":104,"left_children":[1,-1,-1],"loss_changes":[2.9718685E-1,0E0,0E0],"parents":[2147483647,0,0],"right_children":[2,-1,-1],"split_conditions":[1.53E-1,-2.4803203E-2,2.6085747E-2],"split_indices":[20,0,0],"split_type":[0,0,0],"sum_hessian":[2.6149204E0,1.1728818E0,1.4420387E0],"tree_param":{"num_deleted":"0","num_feature":"24","num_nodes":"3","size_leaf_vector":"1"}},{"base_weights":[1.5803939E-1,-1.9105503E-2,4.1248772E-2],"categories":[],"categories_nodes":[],"categories_segments":[],"categories_sizes":[],"default_left":[0,0,0],"id":105,"left_children":[1,-1,-1],"loss_changes":[3.7558284E-1,0E0,0E0],"parents":[2147483647,0,0],"right_children":[2,-1,-1],"split_conditions":[1.53E-1,-1.9105503E-2,4.1248772E-2],"split_indices":[20,0,0],"split_type":[0,0,0],"sum_hessian":[2.3410642E0,1.0920074E0,1.2490567E0],"tree_param":{"num_deleted":"0","num_feature":"24","num_nodes":"3","size_leaf_vector":"1"}},{"base_weights":[-1.5790468E-1,-4.002802E-2,2.678522E-2],"categories":[],"categories_nodes":[],"categories_segments":[],"categories_sizes":[],"default_left":[0,0,0],"id":106,"left_children":[1,-1,-1],"loss_changes":[5.065009E-1,0E0,0E0],"parents":[2147483647,0,0],"right_children":[2,-1,-1],"split_conditions":[8.45E2,-4.002802E-2,2.678522E-2],"split_indices":[9,0,0],"split_type":[0,0,0],"sum_hessian":[2.869301E0,1.8665483E0,1.0027528E0],"tree_param":{"num_deleted":"0","num_feature":"24","num_nodes":"3","size_leaf_vector":"1"}},{"base_weights":[1.4897467E-1,-1.0641764E-2,4.4793416E-2],"categories":[],"categories_nodes":[],"categories_segments":[],"categories_sizes":[],"default_left":[0,0,0],"id":107,"left_children":[1,-1,-1],"loss_changes":[3.4831402E-1,0E0,0E0],"parents":[2147483647,0,0],"right_children":[2,-1,-1],"split_conditions":[5.02E-1,-1.0641764E-2,4.4793416E-2],"split_indices":[15,0,0],"split_type":[0,0,0],"sum_hessian":[2.937633E0,1.9315804E0,1.0060526E0],"tree_param":{"num_deleted":"0","num_feature":"24","num_nodes":"3","size_leaf_vector":"1"}},{"base_weights":[-1.368846E-1,2.5316585E-2,-4.4571824E-2],"categories":[],"categories_nodes":[],"categories_segments":[],"categories_sizes":[],"default_left":[0,0,0],"id":108,"left_children":[1,-1,-1],"loss_changes":[5.1184565E-1,0E0,0E0],"parents":[2147483647,0,0],"right_children":[2,-1,-1],"split_conditions":[4.54E2,2.5316585E-2,-4.4571824E-2],"split_indices":[9,0,0],"split_type":[0,0,0],"sum_hessian":[2.3123255E0,1.1014582E0,1.2108672E0],"tree_param":{"num_deleted":"0","num_feature":"24","num_nodes":"3","size_leaf_vector":"1"}},{"base_weights":[-4.1215852E-2,-2.4074716E-2,1.9032354E-2],"categories":[],"categories_nodes":[],"categories_segments":[],"categories_sizes":[],"default_left":[0,0,0],"id":109,"left_children":[1,-1,-1],"loss_changes":[2.1444117E-1,0E0,0E0],"parents":[2147483647,0,0],"right_children":[2,-1,-1],"split_conditions":[3.2E1,-2.4074716E-2,1.9032354E-2],"split_indices":[6,0,0],"split_type":[0,0,0],"sum_hessian":[2.6498628E0,1.4019506E0,1.247912E0],"tree_param":{"num_deleted":"0","num_feature":"24","num_nodes":"3","size_leaf_vector":"1"}},{"base_weights":[-3.0878612E-1,-5.352825E-2,7.1092783E-3],"categories":[],"categories_nodes":[],"categories_segments":[],"categories_sizes":[],"default_left":[0,0,0],"id":110,"left_children":[1,-1,-1],"loss_changes":[3.556313E-1,0E0,0E0],"parents":[2147483647,0,0],"right_children":[2,-1,-1],"split_conditions":[5.64E-1,-5.352825E-2,7.1092783E-3],"split_indices":[15,0,0],"split_type":[0,0,0],"sum_hessian":[2.6909828E0,1.4295505E0,1.2614324E0],"tree_param":{"num_deleted":"0","num_feature":"24","num_nodes":"3","size_leaf_vector":"1"}},{"base_weights":[4.6325162E-2,2.5248546E-2,-2.2661485E-2],"categories":[],"categories_nodes":[],"categories_segments":[],"categories_sizes":[],"default_left":[0,0,0],"id":111,"left_children":[1,-1,-1],"loss_changes":[2.505324E-1,0E0,0E0],"parents":[2147483647,0,0],"right_children":[2,-1,-1],"split_conditions":[3E-3,2.5248546E-2,-2.2661485E-2],"split_indices":[19,0,0],"split_type":[0,0,0],"sum_hessian":[2.4355347E0,1.4302005E0,1.0053343E0],"tree_param":{"num_deleted":"0","num_feature":"24","num_nodes":"3","size_leaf_vector":"1"}},{"base_weights":[2.8428508E-2,1.838112E-2,-1.5841028E-2],"categories":[],"categories_nodes":[],"categories_segments":[],"categories_sizes":[],"default_left":[0,0,0],"id":112,"left_children":[1,-1,-1],"loss_changes":[1.4701033E-1,0E0,0E0],"parents":[2147483647,0,0],"right_children":[2,-1,-1],"split_conditions":[2.24E-1,1.838112E-2,-1.5841028E-2],"split_indices":[22,0,0],"split_type":[0,0,0],"sum_hessian":[3.0608544E0,1.6799468E0,1.3809077E0],"tree_param":{"num_deleted":"0","num_feature":"24","num_nodes":"3","size_leaf_vector":"1"}},{"base_weights":[4.0824503E-2,1.8707743E-2,-1.7721688E-2],"categories":[],"categories_nodes":[],"categories_segments":[],"categories_sizes":[],"default_left":[0,0,0],"id":113,"left_children":[1,-1,-1],"loss_changes":[1.5946925E-1,0E0,0E0],"parents":[2147483647,0,0],"right_children":[2,-1,-1],"split_conditions":[4.4E1,1.8707743E-2,-1.7721688E-2],"split_indices":[6,0,0],"split_type":[0,0,0],"sum_hessian":[2.9610903E0,1.8573011E0,1.1037893E0],"tree_param":{"num_deleted":"0","num_feature":"24","num_nodes":"3","size_leaf_vector":"1"}},{"base_weights":[-2.136631E-1,4.227258E-3,-3.3218395E-2],"categories":[],"categories_nodes":[],"categories_segments":[],"categories_sizes":[],"default_left":[0,0,0],"id":114,"left_children":[1,-1,-1],"loss_changes":[1.2088303E-1,0E0,0E0],"parents":[2147483647,0,0],"right_children":[2,-1,-1],"split_conditions":[5.49E2,4.227258E-3,-3.3218395E-2],"split_indices":[9,0,0],"split_type":[0,0,0],"sum_hessian":[2.522179E0,1.0019295E0,1.5202495E0],"tree_param":{"num_deleted":"0","num_feature":"24","num_nodes":"3","size_leaf_vector":"1"}},{"base_weights":[9.125824E-2,3.314198E-2,-1.7116996E-2],"categories":[],"categories_nodes":[],"categories_segments":[],"categories_sizes":[],"default_left":[0,0,0],"id":115,"left_children":[1,-1,-1],"loss_changes":[3.0391312E-1,0E0,0E0],"parents":[2147483647,0,0],"right_children":[2,-1,-1],"split_conditions":[2.24E-1,3.314198E-2,-1.7116996E-2],"split_indices":[22,0,0],"split_type":[0,0,0],"sum_hessian":[2.9219892E0,1.38845E0,1.5335392E0],"tree_param":{"num_deleted":"0","num_feature":"24","num_nodes":"3","size_leaf_vector":"1"}},{"base_weights":[1.0409856E-3,-1.7306438E-2,1.8483695E-2],"categories":[],"categories_nodes":[],"categories_segments":[],"categories_sizes":[],"default_left":[0,0,0],"id":116,"left_children":[1,-1,-1],"loss_changes":[1.6613857E-1,0E0,0E0],"parents":[2147483647,0,0],"right_children":[2,-1,-1],"split_conditions":[6.92E2,-1.7306438E-2,1.8483695E-2],"split_indices":[9,0,0],"split_type":[0,0,0],"sum_hessian":[3.1922026E0,1.6693022E0,1.5229002E0],"tree_param":{"num_deleted":"0","num_feature":"24","num_nodes":"3","size_leaf_vector":"1"}},{"base_weights":[-8.877098E-3,1.796576E-2,-1.4110419E-1,-3.358655E-2,1.2268055E-2],"categories":[],"categories_nodes":[],"categories_segments":[],"categories_sizes":[],"default_left":[0,0,0,0,0],"id":117,"left_children":[1,-1,3,-1,-1],"loss_changes":[1.3014193E-1,0E0,1.969124E-1,0E0,0E0],"parents":[2147483647,0,0,2,2],"right_children":[2,-1,4,-1,-1],"split_conditions":[3E0,1.796576E-2,8.6E-2,-3.358655E-2,1.2268055E-2],"split_indices":[10,0,18,0,0],"split_type":[0,0,0,0,0],"sum_hessian":[3.2035313E0,1.172718E0,2.0308132E0,1.0110582E0,1.0197549E0],"tree_param":{"num_deleted":"0","num_feature":"24","num_nodes":"5","size_leaf_vector":"1"}},{"base_weights":[1.7141588E-2,-2.6930157E-2,2.9750211E-2],"categories":[],"categories_nodes":[],"categories_segments":[],"categories_sizes":[],"default_left":[0,0,0],"id":118,"left_children":[1,-1,-1],"loss_changes":[3.749659E-1,0E0,0E0],"parents":[2147483647,0,0],"right_children":[2,-1,-1],"split_conditions":[6.92E2,-2.6930157E-2,2.9750211E-2],"split_indices":[9,0,0],"split_type":[0,0,0],"sum_hessian":[2.6714962E0,1.3409245E0,1.3305717E0],"tree_param":{"num_deleted":"0","num_feature":"24","num_nodes":"3","size_leaf_vector":"1"}},{"base_weights":[1.2307208E-1,-1.920232E-2,3.6331244E-2],"categories":[],"categories_nodes":[],"categories_segments":[],"categories_sizes":[],"default_left":[0,0,0],"id":119,"left_children":[1,-1,-1],"loss_changes":[3.6901435E-1,0E0,0E0],"parents":[2147483647,0,0],"right_children":[2,-1,-1],"split_conditions":[2.9E1,-1.920232E-2,3.6331244E-2],"split_indices":[6,0,0],"split_type":[0,0,0],"sum_hessian":[2.953177E0,1.3643811E0,1.5887959E0],"tree_param":{"num_deleted":"0","num_feature":"24","num_nodes":"3","size_leaf_vector":"1"}},{"base_weights":[-2.308101E-1,-4.644082E-2,2.210501E-3],"categories":[],"categories_nodes":[],"categories_segments":[],"categories_sizes":[],"default_left":[0,0,0],"id":120,"left_children":[1,-1,-1],"loss_changes":[2.3259047E-1,0E0,0E0],"parents":[2147483647,0,0],"right_children":[2,-1,-1],"split_conditions":[2.8E1,-4.644082E-2,2.210501E-3],"split_indices":[6,0,0],"split_type":[0,0,0],"sum_hessian":[2.7630816E0,1.0016829E0,1.7613987E0],"tree_param":{"num_deleted":"0","num_feature":"24","num_nodes":"3","size_leaf_vector":"1"}},{"base_weights":[8.9049935E-2,-2.3986049E-2,4.2174723E-2],"categories":[],"categories_nodes":[],"categories_segments":[],"categories_sizes":[],"default_left":[0,0,0],"id":121,"left_children":[1,-1,-1],"loss_changes":[4.9172005E-1,0E0,0E0],"parents":[2147483647,0,0],"right_children":[2,-1,-1],"split_conditions":[6.92E2,-2.3986049E-2,4.2174723E-2],"split_indices":[9,0,0],"split_type":[0,0,0],"sum_hessian":[2.5691142E0,1.4322295E0,1.1368847E0],"tree_param":{"num_deleted":"0","num_feature":"24","num_nodes":"3","size_leaf_vector":"1"}},{"base_weights":[-2.8808397E-1,-5.2899063E-2,8.821404E-3],"categories":[],"categories_nodes":[],"categories_segments":[],"categories_sizes":[],"default_left":[0,0,0],"id":122,"left_children":[1,-1,-1],"loss_changes":[3.6442706E-1,0E0,0E0],"parents":[2147483647,0,0],"right_children":[2,-1,-1],"split_conditions":[5.64E-1,-5.2899063E-2,8.821404E-3],"split_indices":[15,0,0],"split_type":[0,0,0],"sum_hessian":[2.5052748E0,1.2800246E0,1.22525E0],"tree_param":{"num_deleted":"0","num_feature":"24","num_nodes":"3","size_leaf_vector":"1"}},{"base_weights":[-1.1588103E-1],"categories":[],"categories_nodes":[],"categories_segments":[],"categories_sizes":[],"default_left":[0],"id":123,"left_children":[-1],"loss_changes":[0E0],"parents":[2147483647],"right_children":[-1],"split_conditions":[-1.1588103E-2],"split_indices":[0],"split_type":[0],"sum_hessian":[1.9306439E0],"tree_param":{"num_deleted":"0","num_feature":"24","num_nodes":"1","size_leaf_vector":"1"}},{"base_weights":[1.2141425E-2,2.2107525E-2,-1.4393388E-2],"categories":[],"categories_nodes":[],"categories_segments":[],"categories_sizes":[],"default_left":[0,0,0],"id":124,"left_children":[1,-1,-1],"loss_changes":[1.6525224E-1,0E0,0E0],"parents":[2147483647,0,0],"right_children":[2,-1,-1],"split_conditions":[3E0,2.2107525E-2,-1.4393388E-2],"split_indices":[10,0,0],"split_type":[0,0,0],"sum_hessian":[3.091826E0,1.143965E0,1.9478608E0],"tree_param":{"num_deleted":"0","num_feature":"24","num_nodes":"3","size_leaf_vector":"1"}},{"base_weights":[2.0634705E-1,-1.5284011E-2,3.9536722E-2],"categories":[],"categories_nodes":[],"categories_segments":[],"categories_sizes":[],"default_left":[0,0,0],"id":125,"left_children":[1,-1,-1],"loss_changes":[3.149349E-1,0E0,0E0],"parents":[2147483647,0,0],"right_children":[2,-1,-1],"split_conditions":[9.96E-1,-1.5284011E-2,3.9536722E-2],"split_indices":[8,0,0],"split_type":[0,0,0],"sum_hessian":[2.7486136E0,1.0137103E0,1.7349033E0],"tree_param":{"num_deleted":"0","num_feature":"24","num_nodes":"3","size_leaf_vector":"1"}},{"base_weights":[2.124249E-1,-1.4062019E-2,4.5503158E-2],"categories":[],"categories_nodes":[],"categories_segments":[],"categories_sizes":[],"default_left":[0,0,0],"id":126,"left_children":[1,-1,-1],"loss_changes":[3.8544595E-1,0E0,0E0],"parents":[2147483647,0,0],"right_children":[2,-1,-1],"split_conditions":[2.9E1,-1.4062019E-2,4.5503158E-2],"split_indices":[6,0,0],"split_type":[0,0,0],"sum_hessian":[2.7531261E0,1.2925559E0,1.4605701E0],"tree_param":{"num_deleted":"0","num_feature":"24","num_nodes":"3","size_leaf_vector":"1"}},{"base_weights":[-1.3611308E-1,2.0696023E-2,-3.55697E-2],"categories":[],"categories_nodes":[],"categories_segments":[],"categories_sizes":[],"default_left":[0,0,0],"id":127,"left_children":[1,-1,-1],"loss_changes":[3.533807E-1,0E0,0E0],"parents":[2147483647,0,0],"right_children":[2,-1,-1],"split_conditions":[8.9E-2,2.0696023E-2,-3.55697E-2],"split_indices":[22,0,0],"split_type":[0,0,0],"sum_hessian":[2.7136996E0,1.0814906E0,1.632209E0],"tree_param":{"num_deleted":"0","num_feature":"24","num_nodes":"3","size_leaf_vector":"1"}},{"base_weights":[-2.947058E-1,2.538635E-3,-4.5020808E-2],"categories":[],"categories_nodes":[],"categories_segments":[],"categories_sizes":[],"default_left":[0,0,0],"id":128,"left_children":[1,-1,-1],"loss_changes":[1.7281052E-1,0E0,0E0],"parents":[2147483647,0,0],"right_children":[2,-1,-1],"split_conditions":[5.75E2,2.538635E-3,-4.5020808E-2],"split_indices":[9,0,0],"split_type":[0,0,0],"sum_hessian":[2.2422132E0,1.0067089E0,1.2355043E0],"tree_param":{"num_deleted":"0","num_feature":"24","num_nodes":"3","size_leaf_vector":"1"}},{"base_weights":[1.22437656E-1,-2.1545304E-2,4.4826277E-2],"categories":[],"categories_nodes":[],"categories_segments":[],"categories_sizes":[],"default_left":[0,0,0],"id":129,"left_children":[1,-1,-1],"loss_changes":[4.6358937E-1,0E0,0E0],"parents":[2147483647,0,0],"right_children":[2,-1,-1],"split_conditions":[3.2E1,-2.1545304E-2,4.4826277E-2],"split_indices":[6,0,0],"split_type":[0,0,0],"sum_hessian":[2.3336263E0,1.311896E0,1.0217303E0],"tree_param":{"num_deleted":"0","num_feature":"24","num_nodes":"3","size_leaf_vector":"1"}},{"base_weights":[8.484648E-2],"categories":[],"categories_nodes":[],"categories_segments":[],"categories_sizes":[],"default_left":[0],"id":130,"left_children":[-1],"loss_changes":[0E0],"parents":[2147483647],"right_children":[-1],"split_conditions":[8.484649E-3],"split_indices":[0],"split_type":[0],"sum_hessian":[2.4357777E0],"tree_param":{"num_deleted":"0","num_feature":"24","num_nodes":"1","size_leaf_vector":"1"}},{"base_weights":[-1.12033516E-1,-3.1078685E-2,7.894353E-3],"categories":[],"categories_nodes":[],"categories_segments":[],"categories_sizes":[],"default_left":[0,0,0],"id":131,"left_children":[1,-1,-1],"loss_changes":[1.6406454E-1,0E0,0E0],"parents":[2147483647,0,0],"right_children":[2,-1,-1],"split_conditions":[3E-1,-3.1078685E-2,7.894353E-3],"split_indices":[23,0,0],"split_type":[0,0,0],"sum_hessian":[2.6759684E0,1.0038704E0,1.6720982E0],"tree_param":{"num_deleted":"0","num_feature":"24","num_nodes":"3","size_leaf_vector":"1"}},{"base_weights":[1.2317313E-1,-1.6937172E-2,4.257545E-2],"categories":[],"categories_nodes":[],"categories_segments":[],"categories_sizes":[],"default_left":[0,0,0],"id":132,"left_children":[1,-1,-1],"loss_changes":[4.046835E-1,0E0,0E0],"parents":[2147483647,0,0],"right_children":[2,-1,-1],"split_conditions":[6.92E2,-1.6937172E-2,4.257545E-2],"split_indices":[9,0,0],"split_type":[0,0,0],"sum_hessian":[2.7570937E0,1.6256297E0,1.131464E0],"tree_param":{"num_deleted":"0","num_feature":"24","num_nodes":"3","size_leaf_vector":"1"}},{"base_weights":[7.358925E-2,3.0844886E-2,-1.5475648E-2],"categories":[],"categories_nodes":[],"categories_segments":[],"categories_sizes":[],"default_left":[0,0,0],"id":133,"left_children":[1,-1,-1],"loss_changes":[2.2975202E-1,0E0,0E0],"parents":[2147483647,0,0],"right_children":[2,-1,-1],"split_conditions":[9.9E-1,3.0844886E-2,-1.5475648E-2],"split_indices":[14,0,0],"split_type":[0,0,0],"sum_hessian":[2.3940022E0,1.0072359E0,1.3867662E0],"tree_param":{"num_deleted":"0","num_feature":"24","num_nodes":"3","size_leaf_vector":"1"}},{"base_weights":[7.198701E-2,2.3580257E-2,-1.797095E-2],"categories":[],"categories_nodes":[],"categories_segments":[],"categories_sizes":[],"default_left":[0,0,0],"id":134,"left_children":[1,-1,-1],"loss_changes":[2.0047504E-1,0E0,0E0],"parents":[2147483647,0,0],"right_children":[2,-1,-1],"split_conditions":[4.4E1,2.3580257E-2,-1.797095E-2],"split_indices":[6,0,0],"split_type":[0,0,0],"sum_hessian":[2.8343964E0,1.7551876E0,1.0792087E0],"tree_param":{"num_deleted":"0","num_feature":"24","num_nodes":"3","size_leaf_vector":"1"}},{"base_weights":[-1.1874654E-1,8.55467E-3,-2.7066803E-2],"categories":[],"categories_nodes":[],"categories_segments":[],"categories_sizes":[],"default_left":[0,0,0],"id":135,"left_children":[1,-1,-1],"loss_changes":[1.3824682E-1,0E0,0E0],"parents":[2147483647,0,0],"right_children":[2,-1,-1],"split_conditions":[4.54E2,8.55467E-3,-2.7066803E-2],"split_indices":[9,0,0],"split_type":[0,0,0],"sum_hessian":[2.7082763E0,1.3413824E0,1.366894E0],"tree_param":{"num_deleted":"0","num_feature":"24","num_nodes":"3","size_leaf_vector":"1"}},{"base_weights":[5.4078676E-2,2.6435722E-2,-1.8245839E-2],"categories":[],"categories_nodes":[],"categories_segments":[],"categories_sizes":[],"default_left":[0,0,0],"id":136,"left_children":[1,-1,-1],"loss_changes":[2.4150355E-1,0E0,0E0],"parents":[2147483647,0,0],"right_children":[2,-1,-1],"split_conditions":[2.24E-1,2.6435722E-2,-1.8245839E-2],"split_indices":[22,0,0],"split_type":[0,0,0],"sum_hessian":[2.8856966E0,1.4653788E0,1.4203179E0],"tree_param":{"num_deleted":"0","num_feature":"24","num_nodes":"3","size_leaf_vector":"1"}},{"base_weights":[-2.224436E-2,-1.8653352E-2,2.0061048E-2],"categories":[],"categories_nodes":[],"categories_segments":[],"categories_sizes":[],"default_left":[0,0,0],"id":137,"left_children":[1,-1,-1],"loss_changes":[1.7598592E-1,0E0,0E0],"parents":[2147483647,0,0],"right_children":[2,-1,-1],"split_conditions":[6.92E2,-1.8653352E-2,2.0061048E-2],"split_indices":[9,0,0],"split_type":[0,0,0],"sum_hessian":[2.7846317E0,1.6967587E0,1.087873E0],"tree_param":{"num_deleted":"0","num_feature":"24","num_nodes":"3","size_leaf_vector":"1"}},{"base_weights":[1.5884055E-1,-1.5173058E-2,3.5221163E-2],"categories":[],"categories_nodes":[],"categories_segments":[],"categories_sizes":[],"default_left":[0,0,0],"id":138,"left_children":[1,-1,-1],"loss_changes":[2.8119138E-1,0E0,0E0],"parents":[2147483647,0,0],"right_children":[2,-1,-1],"split_conditions":[6.5E-2,-1.5173058E-2,3.5221163E-2],"split_indices":[20,0,0],"split_type":[0,0,0],"sum_hessian":[2.7923286E0,1.1540928E0,1.6382358E0],"tree_param":{"num_deleted":"0","num_feature":"24","num_nodes":"3","size_leaf_vector":"1"}},{"base_weights":[1.3759662E-1,2.7698195E-2,-1.1324259E-2],"categories":[],"categories_nodes":[],"categories_segments":[],"categories_sizes":[],"default_left":[0,0,0],"id":139,"left_children":[1,-1,-1],"loss_changes":[1.5957294E-1,0E0,0E0],"parents":[2147483647,0,0],"right_children":[2,-1,-1],"split_conditions":[1.3E-1,2.7698195E-2,-1.1324259E-2],"split_indices":[18,0,0],"split_type":[0,0,0],"sum_hessian":[2.666895E0,1.6473055E0,1.0195894E0],"tree_param":{"num_deleted":"0","num_feature":"24","num_nodes":"3","size_leaf_vector":"1"}},{"base_weights":[-9.278452E-2,-2.9060243E-2,1.3298646E-2],"categories":[],"categories_nodes":[],"categories_segments":[],"categories_sizes":[],"default_left":[0,0,0],"id":140,"left_children":[1,-1,-1],"loss_changes":[2.0835996E-1,0E0,0E0],"parents":[2147483647,0,0],"right_children":[2,-1,-1],"split_conditions":[6.92E2,-2.9060243E-2,1.3298646E-2],"split_indices":[9,0,0],"split_type":[0,0,0],"sum_hessian":[2.7999983E0,1.3393339E0,1.4606644E0],"tree_param":{"num_deleted":"0","num_feature":"24","num_nodes":"3","size_leaf_vector":"1"}},{"base_weights":[-4.1725304E-2,1.8559096E-2,-2.0893855E-2],"categories":[],"categories_nodes":[],"categories_segments":[],"categories_sizes":[],"default_left":[0,0,0],"id":141,"left_children":[1,-1,-1],"loss_changes":[1.7951636E-1,0E0,0E0],"parents":[2147483647,0,0],"right_children":[2,-1,-1],"split_conditions":[5.08E-1,1.8559096E-2,-2.0893855E-2],"split_indices":[14,0,0],"split_type":[0,0,0],"sum_hessian":[2.7026613E0,1.0988863E0,1.603775E0],"tree_param":{"num_deleted":"0","num_feature":"24","num_nodes":"3","size_leaf_vector":"1"}},{"base_weights":[-2.1678986E-1],"categories":[],"categories_nodes":[],"categories_segments":[],"categories_sizes":[],"default_left":[0],"id":142,"left_children":[-1],"loss_changes":[0E0],"parents":[2147483647],"right_children":[-1],"split_conditions":[-2.1678986E-2],"split_indices":[0],"split_type":[0],"sum_hessian":[1.9444026E0],"tree_param":{"num_deleted":"0","num_feature":"24","num_nodes":"1","size_leaf_vector":"1"}},{"base_weights":[-2.643316E-2,2.5876565E-2,-3.0909179E-2],"categories":[],"categories_nodes":[],"categories_segments":[],"categories_sizes":[],"default_left":[0,0,0],"id":143,"left_children":[1,-1,-1],"loss_changes":[3.6556244E-1,0E0,0E0],"parents":[2147483647,0,0],"right_children":[2,-1,-1],"split_conditions":[2E-1,2.5876565E-2,-3.0909179E-2],"split_indices":[20,0,0],"split_type":[0,0,0],"sum_hessian":[2.5425665E0,1.3076721E0,1.2348944E0],"tree_param":{"num_deleted":"0","num_feature":"24","num_nodes":"3","size_leaf_vector":"1"}},{"base_weights":[-4.0956456E-2,1.9531036E-2,-2.1659879E-2],"categories":[],"categories_nodes":[],"categories_segments":[],"categories_sizes":[],"default_left":[0,0,0],"id":144,"left_children":[1,-1,-1],"loss_changes":[1.9807476E-1,0E0,0E0],"parents":[2147483647,0,0],"right_children":[2,-1,-1],"split_conditions":[3E0,1.9531036E-2,-2.1659879E-2],"split_indices":[10,0,0],"split_type":[0,0,0],"sum_hessian":[2.7536528E0,1.1264375E0,1.6272151E0],"tree_param":{"num_deleted":"0","num_feature":"24","num_nodes":"3","size_leaf_vector":"1"}},{"base_weights":[1.1302886E-1,3.0660614E-2,-1.29977865E-2],"categories":[],"categories_nodes":[],"categories_segments":[],"categories_sizes":[],"default_left":[0,0,0],"id":145,"left_children":[1,-1,-1],"loss_changes":[2.1611607E-1,0E0,0E0],"parents":[2147483647,0,0],"right_children":[2,-1,-1],"split_conditions":[2.24E-1,3.0660614E-2,-1.29977865E-2],"split_indices":[22,0,0],"split_type":[0,0,0],"sum_hessian":[2.7470636E0,1.3833662E0,1.3636975E0],"tree_param":{"num_deleted":"0","num_feature":"24","num_nodes":"3","size_leaf_vector":"1"}},{"base_weights":[6.875258E-2,-1.6664196E-2,2.244245E-2],"categories":[],"categories_nodes":[],"categories_segments":[],"categories_sizes":[],"default_left":[0,0,0],"id":146,"left_children":[1,-1,-1],"loss_changes":[1.6910335E-1,0E0,0E0],"parents":[2147483647,0,0],"right_children":[2,-1,-1],"split_conditions":[1E0,-1.6664196E-2,2.244245E-2],"split_indices":[8,0,0],"split_type":[0,0,0],"sum_hessian":[2.5941405E0,1.0045985E0,1.589542E0],"tree_param":{"num_deleted":"0","num_feature":"24","num_nodes":"3","size_leaf_vector":"1"}},{"base_weights":[3.954598E-2,-1.5948048E-2,1.7265309E-2],"categories":[],"categories_nodes":[],"categories_segments":[],"categories_sizes":[],"default_left":[0,0,0],"id":147,"left_children":[1,-1,-1],"loss_changes":[1.3005951E-1,0E0,0E0],"parents":[2147483647,0,0],"right_children":[2,-1,-1],"split_conditions":[2.4E-2,-1.5948048E-2,1.7265309E-2],"split_indices":[20,0,0],"split_type":[0,0,0],"sum_hessian":[2.8700502E0,1.0708063E0,1.799244E0],"tree_param":{"num_deleted":"0","num_feature":"24","num_nodes":"3","size_leaf_vector":"1"}},{"base_weights":[-1.957339E-1,-3.8536325E-2,9.885108E-3],"categories":[],"categories_nodes":[],"categories_segments":[],"categories_sizes":[],"default_left":[0,0,0],"id":148,"left_children":[1,-1,-1],"loss_changes":[2.3388036E-1,0E0,0E0],"parents":[2147483647,0,0],"right_children":[2,-1,-1],"split_conditions":[9E-3,-3.8536325E-2,9.885108E-3],"split_indices":[18,0,0],"split_type":[0,0,0],"sum_hessian":[2.5048323E0,1.3364077E0,1.1684246E0],"tree_param":{"num_deleted":"0","num_feature":"24","num_nodes":"3","size_leaf_vector":"1"}},{"base_weights":[7.713082E-2,-1.55441975E-2,2.2092765E-2],"categories":[],"categories_nodes":[],"categories_segments":[],"categories_sizes":[],"default_left":[0,0,0],"id":149,"left_children":[1,-1,-1],"loss_changes":[1.6119443E-1,0E0,0E0],"parents":[2147483647,0,0],"right_children":[2,-1,-1],"split_conditions":[3.1E-2,-1.55441975E-2,2.2092765E-2],"split_indices":[20,0,0],"split_type":[0,0,0],"sum_hessian":[2.7930846E0,1.0361931E0,1.7568915E0],"tree_param":{"num_deleted":"0","num_feature":"24","num_nodes":"3","size_leaf_vector":"1"}}]},"name":"gbtree"},"learner_model_param":{"base_score":"[5E-1]","boost_from_average":"1","num_class":"0","num_feature":"24","num_target":"1"},"objective":{"name":"binary:logistic","reg_loss_param":{"scale_pos_weight":"1.11538458"}}},"version":[3,1,1]}